digraph Tree {
node [shape=box, style="filled, rounded", color="black", fontname=helvetica] ;
edge [fontname=helvetica] ;
0 [label=<proline &le; 755.0<br/>entropy = 1.562<br/>samples = 124<br/>value = [42, 50, 32]<br/>class = class_1>, fillcolor="#ecfcf3"] ;
1 [label=<color_intensity &le; 4.02<br/>entropy = 0.935<br/>samples = 74<br/>value = [0, 48, 26]<br/>class = class_1>, fillcolor="#a4f3c5"] ;
0 -> 1 [labeldistance=2.5, labelangle=45, headlabel="True"] ;
2 [label=<entropy = 0.0<br/>samples = 43<br/>value = [0, 43, 0]<br/>class = class_1>, fillcolor="#39e581"] ;
1 -> 2 ;
3 [label=<hue &le; 0.92<br/>entropy = 0.637<br/>samples = 31<br/>value = [0, 5, 26]<br/>class = class_2>, fillcolor="#995fea"] ;
1 -> 3 ;
4 [label=<entropy = 0.0<br/>samples = 26<br/>value = [0, 0, 26]<br/>class = class_2>, fillcolor="#8139e5"] ;
3 -> 4 ;
5 [label=<entropy = 0.0<br/>samples = 5<br/>value = [0, 5, 0]<br/>class = class_1>, fillcolor="#39e581"] ;
3 -> 5 ;
6 [label=<flavanoids &le; 2.165<br/>entropy = 0.764<br/>samples = 50<br/>value = [42, 2, 6]<br/>class = class_0>, fillcolor="#ea985d"] ;
0 -> 6 [labeldistance=2.5, labelangle=-45, headlabel="False"] ;
7 [label=<proanthocyanins &le; 1.555<br/>entropy = 0.592<br/>samples = 7<br/>value = [0, 1, 6]<br/>class = class_2>, fillcolor="#965ae9"] ;
6 -> 7 ;
8 [label=<entropy = 0.0<br/>samples = 6<br/>value = [0, 0, 6]<br/>class = class_2>, fillcolor="#8139e5"] ;
7 -> 8 ;
9 [label=<entropy = 0.0<br/>samples = 1<br/>value = [0, 1, 0]<br/>class = class_1>, fillcolor="#39e581"] ;
7 -> 9 ;
10 [label=<alcohol &le; 12.66<br/>entropy = 0.159<br/>samples = 43<br/>value = [42, 1, 0]<br/>class = class_0>, fillcolor="#e6843e"] ;
6 -> 10 ;
11 [label=<entropy = 0.0<br/>samples = 1<br/>value = [0, 1, 0]<br/>class = class_1>, fillcolor="#39e581"] ;
10 -> 11 ;
12 [label=<entropy = 0.0<br/>samples = 42<br/>value = [42, 0, 0]<br/>class = class_0>, fillcolor="#e58139"] ;
10 -> 12 ;
}