digraph Tree {
node [shape=box, style="filled, rounded", color="black", fontname=helvetica] ;
edge [fontname=helvetica] ;
0 [label=<alcohol &le; 10.25<br/>gini = 0.635<br/>samples = 4547<br/>value = [1646, 2008, 893]>, fillcolor="#e6fcef"] ;
1 [label=<volatile acidity &le; 0.275<br/>gini = 0.545<br/>samples = 2227<br/>value = [1226, 857, 144]>, fillcolor="#f8ddca"] ;
0 -> 1 [labeldistance=2.5, labelangle=45, headlabel="True"] ;
2 [label=<volatile acidity &le; 0.237<br/>gini = 0.594<br/>samples = 901<br/>value = [321, 461, 119]>, fillcolor="#cff9e1"] ;
1 -> 2 ;
3 [label=<alcohol &le; 9.15<br/>gini = 0.592<br/>samples = 570<br/>value = [159, 312, 99]>, fillcolor="#b5f5d0"] ;
2 -> 3 ;
4 [label=<fixed acidity &le; 6.75<br/>gini = 0.646<br/>samples = 165<br/>value = [40, 73, 52]>, fillcolor="#dafae8"] ;
3 -> 4 ;
5 [label=<pH &le; 3.245<br/>gini = 0.474<br/>samples = 58<br/>value = [20, 37, 1]>, fillcolor="#a6f3c7"] ;
4 -> 5 ;
6 [label=<residual sugar &le; 12.05<br/>gini = 0.349<br/>samples = 40<br/>value = [9, 31, 0]>, fillcolor="#72eda6"] ;
5 -> 6 ;
7 [label=<volatile acidity &le; 0.18<br/>gini = 0.49<br/>samples = 14<br/>value = [8, 6, 0]>, fillcolor="#f8e0ce"] ;
6 -> 7 ;
8 [label=<gini = 0.0<br/>samples = 3<br/>value = [0, 3, 0]>, fillcolor="#39e581"] ;
7 -> 8 ;
9 [label=<fixed acidity &le; 6.45<br/>gini = 0.397<br/>samples = 11<br/>value = [8, 3, 0]>, fillcolor="#efb083"] ;
7 -> 9 ;
10 [label=<density &le; 0.996<br/>gini = 0.219<br/>samples = 8<br/>value = [7, 1, 0]>, fillcolor="#e99355"] ;
9 -> 10 ;
11 [label=<free sulfur dioxide &le; 38.0<br/>gini = 0.5<br/>samples = 2<br/>value = [1, 1, 0]>, fillcolor="#ffffff"] ;
10 -> 11 ;
12 [label=<gini = 0.0<br/>samples = 1<br/>value = [1, 0, 0]>, fillcolor="#e58139"] ;
11 -> 12 ;
13 [label=<gini = 0.0<br/>samples = 1<br/>value = [0, 1, 0]>, fillcolor="#39e581"] ;
11 -> 13 ;
14 [label=<gini = 0.0<br/>samples = 6<br/>value = [6, 0, 0]>, fillcolor="#e58139"] ;
10 -> 14 ;
15 [label=<sulphates &le; 0.305<br/>gini = 0.444<br/>samples = 3<br/>value = [1, 2, 0]>, fillcolor="#9cf2c0"] ;
9 -> 15 ;
16 [label=<gini = 0.0<br/>samples = 1<br/>value = [1, 0, 0]>, fillcolor="#e58139"] ;
15 -> 16 ;
17 [label=<gini = 0.0<br/>samples = 2<br/>value = [0, 2, 0]>, fillcolor="#39e581"] ;
15 -> 17 ;
18 [label=<citric acid &le; 0.535<br/>gini = 0.074<br/>samples = 26<br/>value = [1, 25, 0]>, fillcolor="#41e686"] ;
6 -> 18 ;
19 [label=<gini = 0.0<br/>samples = 25<br/>value = [0, 25, 0]>, fillcolor="#39e581"] ;
18 -> 19 ;
20 [label=<gini = 0.0<br/>samples = 1<br/>value = [1, 0, 0]>, fillcolor="#e58139"] ;
18 -> 20 ;
21 [label=<residual sugar &le; 17.625<br/>gini = 0.512<br/>samples = 18<br/>value = [11, 6, 1]>, fillcolor="#f4caac"] ;
5 -> 21 ;
22 [label=<residual sugar &le; 12.5<br/>gini = 0.461<br/>samples = 16<br/>value = [11, 4, 1]>, fillcolor="#f0b68c"] ;
21 -> 22 ;
23 [label=<pH &le; 3.38<br/>gini = 0.594<br/>samples = 8<br/>value = [3, 4, 1]>, fillcolor="#d7fae6"] ;
22 -> 23 ;
24 [label=<residual sugar &le; 7.8<br/>gini = 0.56<br/>samples = 5<br/>value = [3, 1, 1]>, fillcolor="#f2c09c"] ;
23 -> 24 ;
25 [label=<gini = 0.0<br/>samples = 3<br/>value = [3, 0, 0]>, fillcolor="#e58139"] ;
24 -> 25 ;
26 [label=<free sulfur dioxide &le; 33.0<br/>gini = 0.5<br/>samples = 2<br/>value = [0, 1, 1]>, fillcolor="#ffffff"] ;
24 -> 26 ;
27 [label=<gini = 0.0<br/>samples = 1<br/>value = [0, 0, 1]>, fillcolor="#8139e5"] ;
26 -> 27 ;
28 [label=<gini = 0.0<br/>samples = 1<br/>value = [0, 1, 0]>, fillcolor="#39e581"] ;
26 -> 28 ;
29 [label=<gini = 0.0<br/>samples = 3<br/>value = [0, 3, 0]>, fillcolor="#39e581"] ;
23 -> 29 ;
30 [label=<gini = 0.0<br/>samples = 8<br/>value = [8, 0, 0]>, fillcolor="#e58139"] ;
22 -> 30 ;
31 [label=<gini = 0.0<br/>samples = 2<br/>value = [0, 2, 0]>, fillcolor="#39e581"] ;
21 -> 31 ;
32 [label=<citric acid &le; 0.335<br/>gini = 0.625<br/>samples = 107<br/>value = [20, 36, 51]>, fillcolor="#e4d5fa"] ;
4 -> 32 ;
33 [label=<volatile acidity &le; 0.205<br/>gini = 0.434<br/>samples = 55<br/>value = [8, 7, 40]>, fillcolor="#a978ed"] ;
32 -> 33 ;
34 [label=<residual sugar &le; 12.5<br/>gini = 0.217<br/>samples = 42<br/>value = [2, 3, 37]>, fillcolor="#9152e8"] ;
33 -> 34 ;
35 [label=<total sulfur dioxide &le; 165.0<br/>gini = 0.611<br/>samples = 6<br/>value = [2, 3, 1]>, fillcolor="#cef8e0"] ;
34 -> 35 ;
36 [label=<citric acid &le; 0.32<br/>gini = 0.375<br/>samples = 4<br/>value = [0, 3, 1]>, fillcolor="#7beeab"] ;
35 -> 36 ;
37 [label=<gini = 0.0<br/>samples = 3<br/>value = [0, 3, 0]>, fillcolor="#39e581"] ;
36 -> 37 ;
38 [label=<gini = 0.0<br/>samples = 1<br/>value = [0, 0, 1]>, fillcolor="#8139e5"] ;
36 -> 38 ;
39 [label=<gini = 0.0<br/>samples = 2<br/>value = [2, 0, 0]>, fillcolor="#e58139"] ;
35 -> 39 ;
40 [label=<gini = 0.0<br/>samples = 36<br/>value = [0, 0, 36]>, fillcolor="#8139e5"] ;
34 -> 40 ;
41 [label=<density &le; 0.999<br/>gini = 0.639<br/>samples = 13<br/>value = [6, 4, 3]>, fillcolor="#f9e3d3"] ;
33 -> 41 ;
42 [label=<sulphates &le; 0.465<br/>gini = 0.32<br/>samples = 5<br/>value = [0, 4, 1]>, fillcolor="#6aeca0"] ;
41 -> 42 ;
43 [label=<gini = 0.0<br/>samples = 4<br/>value = [0, 4, 0]>, fillcolor="#39e581"] ;
42 -> 43 ;
44 [label=<gini = 0.0<br/>samples = 1<br/>value = [0, 0, 1]>, fillcolor="#8139e5"] ;
42 -> 44 ;
45 [label=<residual sugar &le; 13.55<br/>gini = 0.375<br/>samples = 8<br/>value = [6, 0, 2]>, fillcolor="#eeab7b"] ;
41 -> 45 ;
46 [label=<gini = 0.0<br/>samples = 2<br/>value = [0, 0, 2]>, fillcolor="#8139e5"] ;
45 -> 46 ;
47 [label=<gini = 0.0<br/>samples = 6<br/>value = [6, 0, 0]>, fillcolor="#e58139"] ;
45 -> 47 ;
48 [label=<total sulfur dioxide &le; 152.0<br/>gini = 0.591<br/>samples = 52<br/>value = [12, 29, 11]>, fillcolor="#abf4c9"] ;
32 -> 48 ;
49 [label=<pH &le; 3.275<br/>gini = 0.623<br/>samples = 17<br/>value = [8, 3, 6]>, fillcolor="#fae8db"] ;
48 -> 49 ;
50 [label=<alcohol &le; 8.95<br/>gini = 0.486<br/>samples = 12<br/>value = [8, 3, 1]>, fillcolor="#f1b991"] ;
49 -> 50 ;
51 [label=<sulphates &le; 0.62<br/>gini = 0.198<br/>samples = 9<br/>value = [8, 0, 1]>, fillcolor="#e89152"] ;
50 -> 51 ;
52 [label=<gini = 0.0<br/>samples = 8<br/>value = [8, 0, 0]>, fillcolor="#e58139"] ;
51 -> 52 ;
53 [label=<gini = 0.0<br/>samples = 1<br/>value = [0, 0, 1]>, fillcolor="#8139e5"] ;
51 -> 53 ;
54 [label=<gini = 0.0<br/>samples = 3<br/>value = [0, 3, 0]>, fillcolor="#39e581"] ;
50 -> 54 ;
55 [label=<gini = 0.0<br/>samples = 5<br/>value = [0, 0, 5]>, fillcolor="#8139e5"] ;
49 -> 55 ;
56 [label=<alcohol &le; 8.65<br/>gini = 0.415<br/>samples = 35<br/>value = [4, 26, 5]>, fillcolor="#74eda7"] ;
48 -> 56 ;
57 [label=<gini = 0.0<br/>samples = 3<br/>value = [0, 0, 3]>, fillcolor="#8139e5"] ;
56 -> 57 ;
58 [label=<free sulfur dioxide &le; 74.5<br/>gini = 0.32<br/>samples = 32<br/>value = [4, 26, 2]>, fillcolor="#63eb9c"] ;
56 -> 58 ;
59 [label=<alcohol &le; 8.75<br/>gini = 0.24<br/>samples = 30<br/>value = [2, 26, 2]>, fillcolor="#55e993"] ;
58 -> 59 ;
60 [label=<gini = 0.0<br/>samples = 1<br/>value = [1, 0, 0]>, fillcolor="#e58139"] ;
59 -> 60 ;
61 [label=<total sulfur dioxide &le; 191.5<br/>gini = 0.19<br/>samples = 29<br/>value = [1, 26, 2]>, fillcolor="#4fe88f"] ;
59 -> 61 ;
62 [label=<pH &le; 3.345<br/>gini = 0.077<br/>samples = 25<br/>value = [1, 24, 0]>, fillcolor="#41e686"] ;
61 -> 62 ;
63 [label=<gini = 0.0<br/>samples = 21<br/>value = [0, 21, 0]>, fillcolor="#39e581"] ;
62 -> 63 ;
64 [label=<sulphates &le; 0.725<br/>gini = 0.375<br/>samples = 4<br/>value = [1, 3, 0]>, fillcolor="#7beeab"] ;
62 -> 64 ;
65 [label=<gini = 0.0<br/>samples = 3<br/>value = [0, 3, 0]>, fillcolor="#39e581"] ;
64 -> 65 ;
66 [label=<gini = 0.0<br/>samples = 1<br/>value = [1, 0, 0]>, fillcolor="#e58139"] ;
64 -> 66 ;
67 [label=<total sulfur dioxide &le; 193.0<br/>gini = 0.5<br/>samples = 4<br/>value = [0, 2, 2]>, fillcolor="#ffffff"] ;
61 -> 67 ;
68 [label=<gini = 0.0<br/>samples = 2<br/>value = [0, 0, 2]>, fillcolor="#8139e5"] ;
67 -> 68 ;
69 [label=<gini = 0.0<br/>samples = 2<br/>value = [0, 2, 0]>, fillcolor="#39e581"] ;
67 -> 69 ;
70 [label=<gini = 0.0<br/>samples = 2<br/>value = [2, 0, 0]>, fillcolor="#e58139"] ;
58 -> 70 ;
71 [label=<density &le; 0.994<br/>gini = 0.552<br/>samples = 405<br/>value = [119, 239, 47]>, fillcolor="#acf4ca"] ;
3 -> 71 ;
72 [label=<sulphates &le; 0.855<br/>gini = 0.637<br/>samples = 139<br/>value = [50, 61, 28]>, fillcolor="#e7fcef"] ;
71 -> 72 ;
73 [label=<density &le; 0.994<br/>gini = 0.624<br/>samples = 134<br/>value = [50, 61, 23]>, fillcolor="#e5fcee"] ;
72 -> 73 ;
74 [label=<free sulfur dioxide &le; 13.5<br/>gini = 0.622<br/>samples = 124<br/>value = [41, 60, 23]>, fillcolor="#d2f9e2"] ;
73 -> 74 ;
75 [label=<chlorides &le; 0.041<br/>gini = 0.375<br/>samples = 12<br/>value = [9, 3, 0]>, fillcolor="#eeab7b"] ;
74 -> 75 ;
76 [label=<gini = 0.0<br/>samples = 8<br/>value = [8, 0, 0]>, fillcolor="#e58139"] ;
75 -> 76 ;
77 [label=<free sulfur dioxide &le; 9.5<br/>gini = 0.375<br/>samples = 4<br/>value = [1, 3, 0]>, fillcolor="#7beeab"] ;
75 -> 77 ;
78 [label=<gini = 0.0<br/>samples = 3<br/>value = [0, 3, 0]>, fillcolor="#39e581"] ;
77 -> 78 ;
79 [label=<gini = 0.0<br/>samples = 1<br/>value = [1, 0, 0]>, fillcolor="#e58139"] ;
77 -> 79 ;
80 [label=<citric acid &le; 0.305<br/>gini = 0.617<br/>samples = 112<br/>value = [32, 57, 23]>, fillcolor="#c1f7d8"] ;
74 -> 80 ;
81 [label=<fixed acidity &le; 6.55<br/>gini = 0.484<br/>samples = 47<br/>value = [13, 31, 3]>, fillcolor="#96f1bc"] ;
80 -> 81 ;
82 [label=<free sulfur dioxide &le; 20.5<br/>gini = 0.49<br/>samples = 28<br/>value = [12, 16, 0]>, fillcolor="#cef8e0"] ;
81 -> 82 ;
83 [label=<gini = 0.0<br/>samples = 5<br/>value = [0, 5, 0]>, fillcolor="#39e581"] ;
82 -> 83 ;
84 [label=<pH &le; 3.065<br/>gini = 0.499<br/>samples = 23<br/>value = [12, 11, 0]>, fillcolor="#fdf5ef"] ;
82 -> 84 ;
85 [label=<gini = 0.0<br/>samples = 4<br/>value = [0, 4, 0]>, fillcolor="#39e581"] ;
84 -> 85 ;
86 [label=<pH &le; 3.33<br/>gini = 0.465<br/>samples = 19<br/>value = [12, 7, 0]>, fillcolor="#f4caac"] ;
84 -> 86 ;
87 [label=<fixed acidity &le; 5.75<br/>gini = 0.32<br/>samples = 15<br/>value = [12, 3, 0]>, fillcolor="#eca06a"] ;
86 -> 87 ;
88 [label=<chlorides &le; 0.045<br/>gini = 0.444<br/>samples = 3<br/>value = [1, 2, 0]>, fillcolor="#9cf2c0"] ;
87 -> 88 ;
89 [label=<gini = 0.0<br/>samples = 2<br/>value = [0, 2, 0]>, fillcolor="#39e581"] ;
88 -> 89 ;
90 [label=<gini = 0.0<br/>samples = 1<br/>value = [1, 0, 0]>, fillcolor="#e58139"] ;
88 -> 90 ;
91 [label=<chlorides &le; 0.052<br/>gini = 0.153<br/>samples = 12<br/>value = [11, 1, 0]>, fillcolor="#e78c4b"] ;
87 -> 91 ;
92 [label=<gini = 0.0<br/>samples = 9<br/>value = [9, 0, 0]>, fillcolor="#e58139"] ;
91 -> 92 ;
93 [label=<total sulfur dioxide &le; 132.5<br/>gini = 0.444<br/>samples = 3<br/>value = [2, 1, 0]>, fillcolor="#f2c09c"] ;
91 -> 93 ;
94 [label=<gini = 0.0<br/>samples = 2<br/>value = [2, 0, 0]>, fillcolor="#e58139"] ;
93 -> 94 ;
95 [label=<gini = 0.0<br/>samples = 1<br/>value = [0, 1, 0]>, fillcolor="#39e581"] ;
93 -> 95 ;
96 [label=<gini = 0.0<br/>samples = 4<br/>value = [0, 4, 0]>, fillcolor="#39e581"] ;
86 -> 96 ;
97 [label=<pH &le; 3.27<br/>gini = 0.349<br/>samples = 19<br/>value = [1, 15, 3]>, fillcolor="#6aeca0"] ;
81 -> 97 ;
98 [label=<pH &le; 2.88<br/>gini = 0.117<br/>samples = 16<br/>value = [1, 15, 0]>, fillcolor="#46e789"] ;
97 -> 98 ;
99 [label=<gini = 0.0<br/>samples = 1<br/>value = [1, 0, 0]>, fillcolor="#e58139"] ;
98 -> 99 ;
100 [label=<gini = 0.0<br/>samples = 15<br/>value = [0, 15, 0]>, fillcolor="#39e581"] ;
98 -> 100 ;
101 [label=<gini = 0.0<br/>samples = 3<br/>value = [0, 0, 3]>, fillcolor="#8139e5"] ;
97 -> 101 ;
102 [label=<residual sugar &le; 2.0<br/>gini = 0.66<br/>samples = 65<br/>value = [19, 26, 20]>, fillcolor="#e5fcee"] ;
80 -> 102 ;
103 [label=<citric acid &le; 0.325<br/>gini = 0.65<br/>samples = 48<br/>value = [18, 19, 11]>, fillcolor="#f8fefb"] ;
102 -> 103 ;
104 [label=<density &le; 0.992<br/>gini = 0.49<br/>samples = 7<br/>value = [0, 3, 4]>, fillcolor="#e0cef8"] ;
103 -> 104 ;
105 [label=<gini = 0.0<br/>samples = 2<br/>value = [0, 2, 0]>, fillcolor="#39e581"] ;
104 -> 105 ;
106 [label=<free sulfur dioxide &le; 39.5<br/>gini = 0.32<br/>samples = 5<br/>value = [0, 1, 4]>, fillcolor="#a06aec"] ;
104 -> 106 ;
107 [label=<gini = 0.0<br/>samples = 4<br/>value = [0, 0, 4]>, fillcolor="#8139e5"] ;
106 -> 107 ;
108 [label=<gini = 0.0<br/>samples = 1<br/>value = [0, 1, 0]>, fillcolor="#39e581"] ;
106 -> 108 ;
109 [label=<density &le; 0.992<br/>gini = 0.626<br/>samples = 41<br/>value = [18, 16, 7]>, fillcolor="#fdf5ef"] ;
103 -> 109 ;
110 [label=<gini = 0.0<br/>samples = 4<br/>value = [4, 0, 0]>, fillcolor="#e58139"] ;
109 -> 110 ;
111 [label=<density &le; 0.993<br/>gini = 0.634<br/>samples = 37<br/>value = [14, 16, 7]>, fillcolor="#eefdf4"] ;
109 -> 111 ;
112 [label=<pH &le; 3.175<br/>gini = 0.494<br/>samples = 9<br/>value = [0, 4, 5]>, fillcolor="#e6d7fa"] ;
111 -> 112 ;
113 [label=<pH &le; 3.09<br/>gini = 0.408<br/>samples = 7<br/>value = [0, 2, 5]>, fillcolor="#b388ef"] ;
112 -> 113 ;
114 [label=<sulphates &le; 0.33<br/>gini = 0.444<br/>samples = 3<br/>value = [0, 2, 1]>, fillcolor="#9cf2c0"] ;
113 -> 114 ;
115 [label=<gini = 0.0<br/>samples = 1<br/>value = [0, 0, 1]>, fillcolor="#8139e5"] ;
114 -> 115 ;
116 [label=<gini = 0.0<br/>samples = 2<br/>value = [0, 2, 0]>, fillcolor="#39e581"] ;
114 -> 116 ;
117 [label=<gini = 0.0<br/>samples = 4<br/>value = [0, 0, 4]>, fillcolor="#8139e5"] ;
113 -> 117 ;
118 [label=<gini = 0.0<br/>samples = 2<br/>value = [0, 2, 0]>, fillcolor="#39e581"] ;
112 -> 118 ;
119 [label=<citric acid &le; 0.775<br/>gini = 0.561<br/>samples = 28<br/>value = [14, 12, 2]>, fillcolor="#fcefe6"] ;
111 -> 119 ;
120 [label=<residual sugar &le; 1.35<br/>gini = 0.55<br/>samples = 25<br/>value = [14, 9, 2]>, fillcolor="#f7d8c1"] ;
119 -> 120 ;
121 [label=<gini = 0.0<br/>samples = 7<br/>value = [7, 0, 0]>, fillcolor="#e58139"] ;
120 -> 121 ;
122 [label=<chlorides &le; 0.038<br/>gini = 0.586<br/>samples = 18<br/>value = [7, 9, 2]>, fillcolor="#dbfae8"] ;
120 -> 122 ;
123 [label=<gini = 0.0<br/>samples = 5<br/>value = [0, 5, 0]>, fillcolor="#39e581"] ;
122 -> 123 ;
124 [label=<pH &le; 3.1<br/>gini = 0.592<br/>samples = 13<br/>value = [7, 4, 2]>, fillcolor="#f6d5bd"] ;
122 -> 124 ;
125 [label=<gini = 0.0<br/>samples = 4<br/>value = [4, 0, 0]>, fillcolor="#e58139"] ;
124 -> 125 ;
126 [label=<alcohol &le; 9.9<br/>gini = 0.642<br/>samples = 9<br/>value = [3, 4, 2]>, fillcolor="#defbea"] ;
124 -> 126 ;
127 [label=<volatile acidity &le; 0.205<br/>gini = 0.5<br/>samples = 4<br/>value = [2, 0, 2]>, fillcolor="#ffffff"] ;
126 -> 127 ;
128 [label=<gini = 0.0<br/>samples = 2<br/>value = [0, 0, 2]>, fillcolor="#8139e5"] ;
127 -> 128 ;
129 [label=<gini = 0.0<br/>samples = 2<br/>value = [2, 0, 0]>, fillcolor="#e58139"] ;
127 -> 129 ;
130 [label=<citric acid &le; 0.375<br/>gini = 0.32<br/>samples = 5<br/>value = [1, 4, 0]>, fillcolor="#6aeca0"] ;
126 -> 130 ;
131 [label=<gini = 0.0<br/>samples = 1<br/>value = [1, 0, 0]>, fillcolor="#e58139"] ;
130 -> 131 ;
132 [label=<gini = 0.0<br/>samples = 4<br/>value = [0, 4, 0]>, fillcolor="#39e581"] ;
130 -> 132 ;
133 [label=<gini = 0.0<br/>samples = 3<br/>value = [0, 3, 0]>, fillcolor="#39e581"] ;
119 -> 133 ;
134 [label=<sulphates &le; 0.51<br/>gini = 0.547<br/>samples = 17<br/>value = [1, 7, 9]>, fillcolor="#e6d7fa"] ;
102 -> 134 ;
135 [label=<citric acid &le; 0.42<br/>gini = 0.37<br/>samples = 9<br/>value = [1, 7, 1]>, fillcolor="#6aeca0"] ;
134 -> 135 ;
136 [label=<gini = 0.0<br/>samples = 7<br/>value = [0, 7, 0]>, fillcolor="#39e581"] ;
135 -> 136 ;
137 [label=<fixed acidity &le; 5.5<br/>gini = 0.5<br/>samples = 2<br/>value = [1, 0, 1]>, fillcolor="#ffffff"] ;
135 -> 137 ;
138 [label=<gini = 0.0<br/>samples = 1<br/>value = [1, 0, 0]>, fillcolor="#e58139"] ;
137 -> 138 ;
139 [label=<gini = 0.0<br/>samples = 1<br/>value = [0, 0, 1]>, fillcolor="#8139e5"] ;
137 -> 139 ;
140 [label=<gini = 0.0<br/>samples = 8<br/>value = [0, 0, 8]>, fillcolor="#8139e5"] ;
134 -> 140 ;
141 [label=<free sulfur dioxide &le; 40.5<br/>gini = 0.18<br/>samples = 10<br/>value = [9, 1, 0]>, fillcolor="#e88f4f"] ;
73 -> 141 ;
142 [label=<gini = 0.0<br/>samples = 9<br/>value = [9, 0, 0]>, fillcolor="#e58139"] ;
141 -> 142 ;
143 [label=<gini = 0.0<br/>samples = 1<br/>value = [0, 1, 0]>, fillcolor="#39e581"] ;
141 -> 143 ;
144 [label=<gini = 0.0<br/>samples = 5<br/>value = [0, 0, 5]>, fillcolor="#8139e5"] ;
72 -> 144 ;
145 [label=<citric acid &le; 0.335<br/>gini = 0.48<br/>samples = 266<br/>value = [69, 178, 19]>, fillcolor="#91f1b9"] ;
71 -> 145 ;
146 [label=<citric acid &le; 0.245<br/>gini = 0.422<br/>samples = 155<br/>value = [32, 113, 10]>, fillcolor="#7deeac"] ;
145 -> 146 ;
147 [label=<residual sugar &le; 5.55<br/>gini = 0.537<br/>samples = 23<br/>value = [10, 12, 1]>, fillcolor="#e1fbec"] ;
146 -> 147 ;
148 [label=<volatile acidity &le; 0.205<br/>gini = 0.406<br/>samples = 8<br/>value = [6, 1, 1]>, fillcolor="#eca572"] ;
147 -> 148 ;
149 [label=<gini = 0.0<br/>samples = 6<br/>value = [6, 0, 0]>, fillcolor="#e58139"] ;
148 -> 149 ;
150 [label=<sulphates &le; 0.525<br/>gini = 0.5<br/>samples = 2<br/>value = [0, 1, 1]>, fillcolor="#ffffff"] ;
148 -> 150 ;
151 [label=<gini = 0.0<br/>samples = 1<br/>value = [0, 0, 1]>, fillcolor="#8139e5"] ;
150 -> 151 ;
152 [label=<gini = 0.0<br/>samples = 1<br/>value = [0, 1, 0]>, fillcolor="#39e581"] ;
150 -> 152 ;
153 [label=<volatile acidity &le; 0.2<br/>gini = 0.391<br/>samples = 15<br/>value = [4, 11, 0]>, fillcolor="#81eeaf"] ;
147 -> 153 ;
154 [label=<gini = 0.0<br/>samples = 8<br/>value = [0, 8, 0]>, fillcolor="#39e581"] ;
153 -> 154 ;
155 [label=<total sulfur dioxide &le; 157.5<br/>gini = 0.49<br/>samples = 7<br/>value = [4, 3, 0]>, fillcolor="#f8e0ce"] ;
153 -> 155 ;
156 [label=<free sulfur dioxide &le; 30.5<br/>gini = 0.375<br/>samples = 4<br/>value = [1, 3, 0]>, fillcolor="#7beeab"] ;
155 -> 156 ;
157 [label=<gini = 0.0<br/>samples = 1<br/>value = [1, 0, 0]>, fillcolor="#e58139"] ;
156 -> 157 ;
158 [label=<gini = 0.0<br/>samples = 3<br/>value = [0, 3, 0]>, fillcolor="#39e581"] ;
156 -> 158 ;
159 [label=<gini = 0.0<br/>samples = 3<br/>value = [3, 0, 0]>, fillcolor="#e58139"] ;
155 -> 159 ;
160 [label=<pH &le; 3.405<br/>gini = 0.382<br/>samples = 132<br/>value = [22, 101, 9]>, fillcolor="#71eca5"] ;
146 -> 160 ;
161 [label=<total sulfur dioxide &le; 250.0<br/>gini = 0.333<br/>samples = 120<br/>value = [19, 96, 5]>, fillcolor="#68eb9f"] ;
160 -> 161 ;
162 [label=<chlorides &le; 0.063<br/>gini = 0.316<br/>samples = 118<br/>value = [17, 96, 5]>, fillcolor="#64eb9c"] ;
161 -> 162 ;
163 [label=<residual sugar &le; 1.3<br/>gini = 0.297<br/>samples = 116<br/>value = [15, 96, 5]>, fillcolor="#60ea9a"] ;
162 -> 163 ;
164 [label=<gini = 0.0<br/>samples = 1<br/>value = [1, 0, 0]>, fillcolor="#e58139"] ;
163 -> 164 ;
165 [label=<chlorides &le; 0.054<br/>gini = 0.286<br/>samples = 115<br/>value = [14, 96, 5]>, fillcolor="#5eea99"] ;
163 -> 165 ;
166 [label=<free sulfur dioxide &le; 9.0<br/>gini = 0.234<br/>samples = 85<br/>value = [6, 74, 5]>, fillcolor="#55e993"] ;
165 -> 166 ;
167 [label=<gini = 0.0<br/>samples = 1<br/>value = [1, 0, 0]>, fillcolor="#e58139"] ;
166 -> 167 ;
168 [label=<chlorides &le; 0.048<br/>gini = 0.217<br/>samples = 84<br/>value = [5, 74, 5]>, fillcolor="#52e891"] ;
166 -> 168 ;
169 [label=<volatile acidity &le; 0.125<br/>gini = 0.305<br/>samples = 57<br/>value = [5, 47, 5]>, fillcolor="#5fea99"] ;
168 -> 169 ;
170 [label=<pH &le; 3.195<br/>gini = 0.444<br/>samples = 3<br/>value = [0, 1, 2]>, fillcolor="#c09cf2"] ;
169 -> 170 ;
171 [label=<gini = 0.0<br/>samples = 2<br/>value = [0, 0, 2]>, fillcolor="#8139e5"] ;
170 -> 171 ;
172 [label=<gini = 0.0<br/>samples = 1<br/>value = [0, 1, 0]>, fillcolor="#39e581"] ;
170 -> 172 ;
173 [label=<sulphates &le; 0.755<br/>gini = 0.263<br/>samples = 54<br/>value = [5, 46, 3]>, fillcolor="#59e996"] ;
169 -> 173 ;
174 [label=<sulphates &le; 0.375<br/>gini = 0.238<br/>samples = 53<br/>value = [4, 46, 3]>, fillcolor="#55e993"] ;
173 -> 174 ;
175 [label=<residual sugar &le; 8.1<br/>gini = 0.571<br/>samples = 7<br/>value = [2, 4, 1]>, fillcolor="#b0f5cd"] ;
174 -> 175 ;
176 [label=<gini = 0.0<br/>samples = 4<br/>value = [0, 4, 0]>, fillcolor="#39e581"] ;
175 -> 176 ;
177 [label=<alcohol &le; 9.9<br/>gini = 0.444<br/>samples = 3<br/>value = [2, 0, 1]>, fillcolor="#f2c09c"] ;
175 -> 177 ;
178 [label=<gini = 0.0<br/>samples = 2<br/>value = [2, 0, 0]>, fillcolor="#e58139"] ;
177 -> 178 ;
179 [label=<gini = 0.0<br/>samples = 1<br/>value = [0, 0, 1]>, fillcolor="#8139e5"] ;
177 -> 179 ;
180 [label=<chlorides &le; 0.043<br/>gini = 0.163<br/>samples = 46<br/>value = [2, 42, 2]>, fillcolor="#4be78c"] ;
174 -> 180 ;
181 [label=<gini = 0.0<br/>samples = 25<br/>value = [0, 25, 0]>, fillcolor="#39e581"] ;
180 -> 181 ;
182 [label=<total sulfur dioxide &le; 98.0<br/>gini = 0.327<br/>samples = 21<br/>value = [2, 17, 2]>, fillcolor="#63ea9c"] ;
180 -> 182 ;
183 [label=<gini = 0.0<br/>samples = 1<br/>value = [0, 0, 1]>, fillcolor="#8139e5"] ;
182 -> 183 ;
184 [label=<residual sugar &le; 18.025<br/>gini = 0.265<br/>samples = 20<br/>value = [2, 17, 1]>, fillcolor="#5ae996"] ;
182 -> 184 ;
185 [label=<volatile acidity &le; 0.145<br/>gini = 0.188<br/>samples = 19<br/>value = [2, 17, 0]>, fillcolor="#50e890"] ;
184 -> 185 ;
186 [label=<gini = 0.0<br/>samples = 1<br/>value = [1, 0, 0]>, fillcolor="#e58139"] ;
185 -> 186 ;
187 [label=<free sulfur dioxide &le; 55.0<br/>gini = 0.105<br/>samples = 18<br/>value = [1, 17, 0]>, fillcolor="#45e788"] ;
185 -> 187 ;
188 [label=<gini = 0.0<br/>samples = 16<br/>value = [0, 16, 0]>, fillcolor="#39e581"] ;
187 -> 188 ;
189 [label=<density &le; 0.996<br/>gini = 0.5<br/>samples = 2<br/>value = [1, 1, 0]>, fillcolor="#ffffff"] ;
187 -> 189 ;
190 [label=<gini = 0.0<br/>samples = 1<br/>value = [1, 0, 0]>, fillcolor="#e58139"] ;
189 -> 190 ;
191 [label=<gini = 0.0<br/>samples = 1<br/>value = [0, 1, 0]>, fillcolor="#39e581"] ;
189 -> 191 ;
192 [label=<gini = 0.0<br/>samples = 1<br/>value = [0, 0, 1]>, fillcolor="#8139e5"] ;
184 -> 192 ;
193 [label=<gini = 0.0<br/>samples = 1<br/>value = [1, 0, 0]>, fillcolor="#e58139"] ;
173 -> 193 ;
194 [label=<gini = 0.0<br/>samples = 27<br/>value = [0, 27, 0]>, fillcolor="#39e581"] ;
168 -> 194 ;
195 [label=<chlorides &le; 0.055<br/>gini = 0.391<br/>samples = 30<br/>value = [8, 22, 0]>, fillcolor="#81eeaf"] ;
165 -> 195 ;
196 [label=<volatile acidity &le; 0.18<br/>gini = 0.48<br/>samples = 10<br/>value = [6, 4, 0]>, fillcolor="#f6d5bd"] ;
195 -> 196 ;
197 [label=<gini = 0.0<br/>samples = 4<br/>value = [4, 0, 0]>, fillcolor="#e58139"] ;
196 -> 197 ;
198 [label=<volatile acidity &le; 0.225<br/>gini = 0.444<br/>samples = 6<br/>value = [2, 4, 0]>, fillcolor="#9cf2c0"] ;
196 -> 198 ;
199 [label=<gini = 0.0<br/>samples = 4<br/>value = [0, 4, 0]>, fillcolor="#39e581"] ;
198 -> 199 ;
200 [label=<gini = 0.0<br/>samples = 2<br/>value = [2, 0, 0]>, fillcolor="#e58139"] ;
198 -> 200 ;
201 [label=<pH &le; 2.97<br/>gini = 0.18<br/>samples = 20<br/>value = [2, 18, 0]>, fillcolor="#4fe88f"] ;
195 -> 201 ;
202 [label=<gini = 0.0<br/>samples = 1<br/>value = [1, 0, 0]>, fillcolor="#e58139"] ;
201 -> 202 ;
203 [label=<residual sugar &le; 7.025<br/>gini = 0.1<br/>samples = 19<br/>value = [1, 18, 0]>, fillcolor="#44e688"] ;
201 -> 203 ;
204 [label=<sulphates &le; 0.38<br/>gini = 0.5<br/>samples = 2<br/>value = [1, 1, 0]>, fillcolor="#ffffff"] ;
203 -> 204 ;
205 [label=<gini = 0.0<br/>samples = 1<br/>value = [1, 0, 0]>, fillcolor="#e58139"] ;
204 -> 205 ;
206 [label=<gini = 0.0<br/>samples = 1<br/>value = [0, 1, 0]>, fillcolor="#39e581"] ;
204 -> 206 ;
207 [label=<gini = 0.0<br/>samples = 17<br/>value = [0, 17, 0]>, fillcolor="#39e581"] ;
203 -> 207 ;
208 [label=<gini = 0.0<br/>samples = 2<br/>value = [2, 0, 0]>, fillcolor="#e58139"] ;
162 -> 208 ;
209 [label=<gini = 0.0<br/>samples = 2<br/>value = [2, 0, 0]>, fillcolor="#e58139"] ;
161 -> 209 ;
210 [label=<sulphates &le; 0.435<br/>gini = 0.653<br/>samples = 12<br/>value = [3, 5, 4]>, fillcolor="#e6fcef"] ;
160 -> 210 ;
211 [label=<free sulfur dioxide &le; 47.0<br/>gini = 0.32<br/>samples = 5<br/>value = [1, 4, 0]>, fillcolor="#6aeca0"] ;
210 -> 211 ;
212 [label=<gini = 0.0<br/>samples = 4<br/>value = [0, 4, 0]>, fillcolor="#39e581"] ;
211 -> 212 ;
213 [label=<gini = 0.0<br/>samples = 1<br/>value = [1, 0, 0]>, fillcolor="#e58139"] ;
211 -> 213 ;
214 [label=<citric acid &le; 0.285<br/>gini = 0.571<br/>samples = 7<br/>value = [2, 1, 4]>, fillcolor="#cdb0f5"] ;
210 -> 214 ;
215 [label=<gini = 0.0<br/>samples = 2<br/>value = [2, 0, 0]>, fillcolor="#e58139"] ;
214 -> 215 ;
216 [label=<density &le; 0.998<br/>gini = 0.32<br/>samples = 5<br/>value = [0, 1, 4]>, fillcolor="#a06aec"] ;
214 -> 216 ;
217 [label=<gini = 0.0<br/>samples = 4<br/>value = [0, 0, 4]>, fillcolor="#8139e5"] ;
216 -> 217 ;
218 [label=<gini = 0.0<br/>samples = 1<br/>value = [0, 1, 0]>, fillcolor="#39e581"] ;
216 -> 218 ;
219 [label=<pH &le; 3.05<br/>gini = 0.539<br/>samples = 111<br/>value = [37, 65, 9]>, fillcolor="#b4f5cf"] ;
145 -> 219 ;
220 [label=<free sulfur dioxide &le; 32.5<br/>gini = 0.512<br/>samples = 18<br/>value = [11, 6, 1]>, fillcolor="#f4caac"] ;
219 -> 220 ;
221 [label=<gini = 0.0<br/>samples = 8<br/>value = [8, 0, 0]>, fillcolor="#e58139"] ;
220 -> 221 ;
222 [label=<sulphates &le; 0.415<br/>gini = 0.54<br/>samples = 10<br/>value = [3, 6, 1]>, fillcolor="#aaf4c9"] ;
220 -> 222 ;
223 [label=<gini = 0.0<br/>samples = 3<br/>value = [3, 0, 0]>, fillcolor="#e58139"] ;
222 -> 223 ;
224 [label=<citric acid &le; 0.365<br/>gini = 0.245<br/>samples = 7<br/>value = [0, 6, 1]>, fillcolor="#5ae996"] ;
222 -> 224 ;
225 [label=<gini = 0.0<br/>samples = 1<br/>value = [0, 0, 1]>, fillcolor="#8139e5"] ;
224 -> 225 ;
226 [label=<gini = 0.0<br/>samples = 6<br/>value = [0, 6, 0]>, fillcolor="#39e581"] ;
224 -> 226 ;
227 [label=<density &le; 0.999<br/>gini = 0.512<br/>samples = 93<br/>value = [26, 59, 8]>, fillcolor="#9df2c1"] ;
219 -> 227 ;
228 [label=<free sulfur dioxide &le; 21.5<br/>gini = 0.453<br/>samples = 76<br/>value = [18, 53, 5]>, fillcolor="#88efb3"] ;
227 -> 228 ;
229 [label=<density &le; 0.996<br/>gini = 0.49<br/>samples = 14<br/>value = [8, 6, 0]>, fillcolor="#f8e0ce"] ;
228 -> 229 ;
230 [label=<volatile acidity &le; 0.115<br/>gini = 0.198<br/>samples = 9<br/>value = [8, 1, 0]>, fillcolor="#e89152"] ;
229 -> 230 ;
231 [label=<gini = 0.0<br/>samples = 1<br/>value = [0, 1, 0]>, fillcolor="#39e581"] ;
230 -> 231 ;
232 [label=<gini = 0.0<br/>samples = 8<br/>value = [8, 0, 0]>, fillcolor="#e58139"] ;
230 -> 232 ;
233 [label=<gini = 0.0<br/>samples = 5<br/>value = [0, 5, 0]>, fillcolor="#39e581"] ;
229 -> 233 ;
234 [label=<sulphates &le; 0.475<br/>gini = 0.393<br/>samples = 62<br/>value = [10, 47, 5]>, fillcolor="#72eca5"] ;
228 -> 234 ;
235 [label=<volatile acidity &le; 0.125<br/>gini = 0.59<br/>samples = 23<br/>value = [8, 12, 3]>, fillcolor="#caf8dd"] ;
234 -> 235 ;
236 [label=<gini = 0.0<br/>samples = 2<br/>value = [0, 0, 2]>, fillcolor="#8139e5"] ;
235 -> 236 ;
237 [label=<volatile acidity &le; 0.225<br/>gini = 0.526<br/>samples = 21<br/>value = [8, 12, 1]>, fillcolor="#c2f7d8"] ;
235 -> 237 ;
238 [label=<density &le; 0.995<br/>gini = 0.475<br/>samples = 18<br/>value = [5, 12, 1]>, fillcolor="#94f1bb"] ;
237 -> 238 ;
239 [label=<free sulfur dioxide &le; 24.5<br/>gini = 0.32<br/>samples = 5<br/>value = [4, 1, 0]>, fillcolor="#eca06a"] ;
238 -> 239 ;
240 [label=<gini = 0.0<br/>samples = 1<br/>value = [0, 1, 0]>, fillcolor="#39e581"] ;
239 -> 240 ;
241 [label=<gini = 0.0<br/>samples = 4<br/>value = [4, 0, 0]>, fillcolor="#e58139"] ;
239 -> 241 ;
242 [label=<sulphates &le; 0.455<br/>gini = 0.272<br/>samples = 13<br/>value = [1, 11, 1]>, fillcolor="#5ae996"] ;
238 -> 242 ;
243 [label=<gini = 0.0<br/>samples = 9<br/>value = [0, 9, 0]>, fillcolor="#39e581"] ;
242 -> 243 ;
244 [label=<residual sugar &le; 10.75<br/>gini = 0.625<br/>samples = 4<br/>value = [1, 2, 1]>, fillcolor="#bdf6d5"] ;
242 -> 244 ;
245 [label=<gini = 0.0<br/>samples = 2<br/>value = [0, 2, 0]>, fillcolor="#39e581"] ;
244 -> 245 ;
246 [label=<sulphates &le; 0.465<br/>gini = 0.5<br/>samples = 2<br/>value = [1, 0, 1]>, fillcolor="#ffffff"] ;
244 -> 246 ;
247 [label=<gini = 0.0<br/>samples = 1<br/>value = [0, 0, 1]>, fillcolor="#8139e5"] ;
246 -> 247 ;
248 [label=<gini = 0.0<br/>samples = 1<br/>value = [1, 0, 0]>, fillcolor="#e58139"] ;
246 -> 248 ;
249 [label=<gini = 0.0<br/>samples = 3<br/>value = [3, 0, 0]>, fillcolor="#e58139"] ;
237 -> 249 ;
250 [label=<citric acid &le; 0.71<br/>gini = 0.189<br/>samples = 39<br/>value = [2, 35, 2]>, fillcolor="#4ee88f"] ;
234 -> 250 ;
251 [label=<pH &le; 3.13<br/>gini = 0.148<br/>samples = 38<br/>value = [1, 35, 2]>, fillcolor="#4ae78c"] ;
250 -> 251 ;
252 [label=<residual sugar &le; 9.45<br/>gini = 0.444<br/>samples = 6<br/>value = [0, 4, 2]>, fillcolor="#9cf2c0"] ;
251 -> 252 ;
253 [label=<gini = 0.0<br/>samples = 2<br/>value = [0, 0, 2]>, fillcolor="#8139e5"] ;
252 -> 253 ;
254 [label=<gini = 0.0<br/>samples = 4<br/>value = [0, 4, 0]>, fillcolor="#39e581"] ;
252 -> 254 ;
255 [label=<residual sugar &le; 12.95<br/>gini = 0.061<br/>samples = 32<br/>value = [1, 31, 0]>, fillcolor="#3fe685"] ;
251 -> 255 ;
256 [label=<gini = 0.0<br/>samples = 28<br/>value = [0, 28, 0]>, fillcolor="#39e581"] ;
255 -> 256 ;
257 [label=<density &le; 0.998<br/>gini = 0.375<br/>samples = 4<br/>value = [1, 3, 0]>, fillcolor="#7beeab"] ;
255 -> 257 ;
258 [label=<gini = 0.0<br/>samples = 1<br/>value = [1, 0, 0]>, fillcolor="#e58139"] ;
257 -> 258 ;
259 [label=<gini = 0.0<br/>samples = 3<br/>value = [0, 3, 0]>, fillcolor="#39e581"] ;
257 -> 259 ;
260 [label=<gini = 0.0<br/>samples = 1<br/>value = [1, 0, 0]>, fillcolor="#e58139"] ;
250 -> 260 ;
261 [label=<pH &le; 3.265<br/>gini = 0.623<br/>samples = 17<br/>value = [8, 6, 3]>, fillcolor="#fae8db"] ;
227 -> 261 ;
262 [label=<chlorides &le; 0.055<br/>gini = 0.34<br/>samples = 10<br/>value = [8, 1, 1]>, fillcolor="#eb9d65"] ;
261 -> 262 ;
263 [label=<gini = 0.0<br/>samples = 8<br/>value = [8, 0, 0]>, fillcolor="#e58139"] ;
262 -> 263 ;
264 [label=<fixed acidity &le; 11.75<br/>gini = 0.5<br/>samples = 2<br/>value = [0, 1, 1]>, fillcolor="#ffffff"] ;
262 -> 264 ;
265 [label=<gini = 0.0<br/>samples = 1<br/>value = [0, 1, 0]>, fillcolor="#39e581"] ;
264 -> 265 ;
266 [label=<gini = 0.0<br/>samples = 1<br/>value = [0, 0, 1]>, fillcolor="#8139e5"] ;
264 -> 266 ;
267 [label=<sulphates &le; 0.835<br/>gini = 0.408<br/>samples = 7<br/>value = [0, 5, 2]>, fillcolor="#88efb3"] ;
261 -> 267 ;
268 [label=<alcohol &le; 9.65<br/>gini = 0.444<br/>samples = 3<br/>value = [0, 1, 2]>, fillcolor="#c09cf2"] ;
267 -> 268 ;
269 [label=<gini = 0.0<br/>samples = 2<br/>value = [0, 0, 2]>, fillcolor="#8139e5"] ;
268 -> 269 ;
270 [label=<gini = 0.0<br/>samples = 1<br/>value = [0, 1, 0]>, fillcolor="#39e581"] ;
268 -> 270 ;
271 [label=<gini = 0.0<br/>samples = 4<br/>value = [0, 4, 0]>, fillcolor="#39e581"] ;
267 -> 271 ;
272 [label=<citric acid &le; 0.245<br/>gini = 0.554<br/>samples = 331<br/>value = [162, 149, 20]>, fillcolor="#fdf6f1"] ;
2 -> 272 ;
273 [label=<chlorides &le; 0.044<br/>gini = 0.427<br/>samples = 59<br/>value = [42, 15, 2]>, fillcolor="#efb286"] ;
272 -> 273 ;
274 [label=<volatile acidity &le; 0.245<br/>gini = 0.494<br/>samples = 18<br/>value = [8, 10, 0]>, fillcolor="#d7fae6"] ;
273 -> 274 ;
275 [label=<gini = 0.0<br/>samples = 5<br/>value = [0, 5, 0]>, fillcolor="#39e581"] ;
274 -> 275 ;
276 [label=<fixed acidity &le; 6.55<br/>gini = 0.473<br/>samples = 13<br/>value = [8, 5, 0]>, fillcolor="#f5d0b5"] ;
274 -> 276 ;
277 [label=<density &le; 0.995<br/>gini = 0.408<br/>samples = 7<br/>value = [2, 5, 0]>, fillcolor="#88efb3"] ;
276 -> 277 ;
278 [label=<gini = 0.0<br/>samples = 2<br/>value = [2, 0, 0]>, fillcolor="#e58139"] ;
277 -> 278 ;
279 [label=<gini = 0.0<br/>samples = 5<br/>value = [0, 5, 0]>, fillcolor="#39e581"] ;
277 -> 279 ;
280 [label=<gini = 0.0<br/>samples = 6<br/>value = [6, 0, 0]>, fillcolor="#e58139"] ;
276 -> 280 ;
281 [label=<alcohol &le; 9.55<br/>gini = 0.295<br/>samples = 41<br/>value = [34, 5, 2]>, fillcolor="#ea9a60"] ;
273 -> 281 ;
282 [label=<gini = 0.0<br/>samples = 22<br/>value = [22, 0, 0]>, fillcolor="#e58139"] ;
281 -> 282 ;
283 [label=<free sulfur dioxide &le; 26.0<br/>gini = 0.521<br/>samples = 19<br/>value = [12, 5, 2]>, fillcolor="#f2c09c"] ;
281 -> 283 ;
284 [label=<gini = 0.0<br/>samples = 8<br/>value = [8, 0, 0]>, fillcolor="#e58139"] ;
283 -> 284 ;
285 [label=<total sulfur dioxide &le; 181.0<br/>gini = 0.628<br/>samples = 11<br/>value = [4, 5, 2]>, fillcolor="#e3fbed"] ;
283 -> 285 ;
286 [label=<pH &le; 3.095<br/>gini = 0.408<br/>samples = 7<br/>value = [0, 5, 2]>, fillcolor="#88efb3"] ;
285 -> 286 ;
287 [label=<gini = 0.0<br/>samples = 2<br/>value = [0, 0, 2]>, fillcolor="#8139e5"] ;
286 -> 287 ;
288 [label=<gini = 0.0<br/>samples = 5<br/>value = [0, 5, 0]>, fillcolor="#39e581"] ;
286 -> 288 ;
289 [label=<gini = 0.0<br/>samples = 4<br/>value = [4, 0, 0]>, fillcolor="#e58139"] ;
285 -> 289 ;
290 [label=<alcohol &le; 9.85<br/>gini = 0.558<br/>samples = 272<br/>value = [120, 134, 18]>, fillcolor="#edfdf3"] ;
272 -> 290 ;
291 [label=<total sulfur dioxide &le; 135.0<br/>gini = 0.55<br/>samples = 212<br/>value = [106, 94, 12]>, fillcolor="#fcf2eb"] ;
290 -> 291 ;
292 [label=<fixed acidity &le; 7.25<br/>gini = 0.432<br/>samples = 38<br/>value = [12, 26, 0]>, fillcolor="#94f1bb"] ;
291 -> 292 ;
293 [label=<alcohol &le; 9.1<br/>gini = 0.227<br/>samples = 23<br/>value = [3, 20, 0]>, fillcolor="#57e994"] ;
292 -> 293 ;
294 [label=<gini = 0.0<br/>samples = 2<br/>value = [2, 0, 0]>, fillcolor="#e58139"] ;
293 -> 294 ;
295 [label=<pH &le; 3.505<br/>gini = 0.091<br/>samples = 21<br/>value = [1, 20, 0]>, fillcolor="#43e687"] ;
293 -> 295 ;
296 [label=<gini = 0.0<br/>samples = 20<br/>value = [0, 20, 0]>, fillcolor="#39e581"] ;
295 -> 296 ;
297 [label=<gini = 0.0<br/>samples = 1<br/>value = [1, 0, 0]>, fillcolor="#e58139"] ;
295 -> 297 ;
298 [label=<total sulfur dioxide &le; 41.0<br/>gini = 0.48<br/>samples = 15<br/>value = [9, 6, 0]>, fillcolor="#f6d5bd"] ;
292 -> 298 ;
299 [label=<total sulfur dioxide &le; 17.5<br/>gini = 0.245<br/>samples = 7<br/>value = [1, 6, 0]>, fillcolor="#5ae996"] ;
298 -> 299 ;
300 [label=<gini = 0.0<br/>samples = 1<br/>value = [1, 0, 0]>, fillcolor="#e58139"] ;
299 -> 300 ;
301 [label=<gini = 0.0<br/>samples = 6<br/>value = [0, 6, 0]>, fillcolor="#39e581"] ;
299 -> 301 ;
302 [label=<gini = 0.0<br/>samples = 8<br/>value = [8, 0, 0]>, fillcolor="#e58139"] ;
298 -> 302 ;
303 [label=<free sulfur dioxide &le; 68.0<br/>gini = 0.551<br/>samples = 174<br/>value = [94, 68, 12]>, fillcolor="#f9e0ce"] ;
291 -> 303 ;
304 [label=<pH &le; 3.065<br/>gini = 0.544<br/>samples = 164<br/>value = [93, 59, 12]>, fillcolor="#f7d6bf"] ;
303 -> 304 ;
305 [label=<citric acid &le; 0.4<br/>gini = 0.598<br/>samples = 35<br/>value = [12, 18, 5]>, fillcolor="#cbf8de"] ;
304 -> 305 ;
306 [label=<sulphates &le; 0.465<br/>gini = 0.552<br/>samples = 23<br/>value = [4, 14, 5]>, fillcolor="#9cf2c0"] ;
305 -> 306 ;
307 [label=<free sulfur dioxide &le; 42.75<br/>gini = 0.661<br/>samples = 11<br/>value = [4, 3, 4]>, fillcolor="#ffffff"] ;
306 -> 307 ;
308 [label=<gini = 0.0<br/>samples = 4<br/>value = [0, 0, 4]>, fillcolor="#8139e5"] ;
307 -> 308 ;
309 [label=<citric acid &le; 0.28<br/>gini = 0.49<br/>samples = 7<br/>value = [4, 3, 0]>, fillcolor="#f8e0ce"] ;
307 -> 309 ;
310 [label=<gini = 0.0<br/>samples = 3<br/>value = [3, 0, 0]>, fillcolor="#e58139"] ;
309 -> 310 ;
311 [label=<fixed acidity &le; 7.25<br/>gini = 0.375<br/>samples = 4<br/>value = [1, 3, 0]>, fillcolor="#7beeab"] ;
309 -> 311 ;
312 [label=<gini = 0.0<br/>samples = 3<br/>value = [0, 3, 0]>, fillcolor="#39e581"] ;
311 -> 312 ;
313 [label=<gini = 0.0<br/>samples = 1<br/>value = [1, 0, 0]>, fillcolor="#e58139"] ;
311 -> 313 ;
314 [label=<alcohol &le; 9.35<br/>gini = 0.153<br/>samples = 12<br/>value = [0, 11, 1]>, fillcolor="#4be78c"] ;
306 -> 314 ;
315 [label=<gini = 0.0<br/>samples = 11<br/>value = [0, 11, 0]>, fillcolor="#39e581"] ;
314 -> 315 ;
316 [label=<gini = 0.0<br/>samples = 1<br/>value = [0, 0, 1]>, fillcolor="#8139e5"] ;
314 -> 316 ;
317 [label=<sulphates &le; 0.43<br/>gini = 0.444<br/>samples = 12<br/>value = [8, 4, 0]>, fillcolor="#f2c09c"] ;
305 -> 317 ;
318 [label=<gini = 0.0<br/>samples = 3<br/>value = [0, 3, 0]>, fillcolor="#39e581"] ;
317 -> 318 ;
319 [label=<free sulfur dioxide &le; 58.75<br/>gini = 0.198<br/>samples = 9<br/>value = [8, 1, 0]>, fillcolor="#e89152"] ;
317 -> 319 ;
320 [label=<gini = 0.0<br/>samples = 8<br/>value = [8, 0, 0]>, fillcolor="#e58139"] ;
319 -> 320 ;
321 [label=<gini = 0.0<br/>samples = 1<br/>value = [0, 1, 0]>, fillcolor="#39e581"] ;
319 -> 321 ;
322 [label=<residual sugar &le; 14.85<br/>gini = 0.502<br/>samples = 129<br/>value = [81, 41, 7]>, fillcolor="#f3c6a5"] ;
304 -> 322 ;
323 [label=<residual sugar &le; 14.2<br/>gini = 0.538<br/>samples = 109<br/>value = [62, 40, 7]>, fillcolor="#f7d7c0"] ;
322 -> 323 ;
324 [label=<free sulfur dioxide &le; 51.5<br/>gini = 0.496<br/>samples = 104<br/>value = [62, 40, 2]>, fillcolor="#f6d4bb"] ;
323 -> 324 ;
325 [label=<sulphates &le; 0.465<br/>gini = 0.434<br/>samples = 48<br/>value = [34, 12, 2]>, fillcolor="#efb286"] ;
324 -> 325 ;
326 [label=<alcohol &le; 9.775<br/>gini = 0.111<br/>samples = 17<br/>value = [16, 1, 0]>, fillcolor="#e78945"] ;
325 -> 326 ;
327 [label=<gini = 0.0<br/>samples = 16<br/>value = [16, 0, 0]>, fillcolor="#e58139"] ;
326 -> 327 ;
328 [label=<gini = 0.0<br/>samples = 1<br/>value = [0, 1, 0]>, fillcolor="#39e581"] ;
326 -> 328 ;
329 [label=<total sulfur dioxide &le; 162.0<br/>gini = 0.533<br/>samples = 31<br/>value = [18, 11, 2]>, fillcolor="#f6d3ba"] ;
325 -> 329 ;
330 [label=<fixed acidity &le; 7.25<br/>gini = 0.43<br/>samples = 11<br/>value = [2, 8, 1]>, fillcolor="#7beeab"] ;
329 -> 330 ;
331 [label=<residual sugar &le; 1.3<br/>gini = 0.198<br/>samples = 9<br/>value = [0, 8, 1]>, fillcolor="#52e891"] ;
330 -> 331 ;
332 [label=<gini = 0.0<br/>samples = 1<br/>value = [0, 0, 1]>, fillcolor="#8139e5"] ;
331 -> 332 ;
333 [label=<gini = 0.0<br/>samples = 8<br/>value = [0, 8, 0]>, fillcolor="#39e581"] ;
331 -> 333 ;
334 [label=<gini = 0.0<br/>samples = 2<br/>value = [2, 0, 0]>, fillcolor="#e58139"] ;
330 -> 334 ;
335 [label=<alcohol &le; 9.25<br/>gini = 0.335<br/>samples = 20<br/>value = [16, 3, 1]>, fillcolor="#eb9f68"] ;
329 -> 335 ;
336 [label=<pH &le; 3.195<br/>gini = 0.444<br/>samples = 3<br/>value = [1, 2, 0]>, fillcolor="#9cf2c0"] ;
335 -> 336 ;
337 [label=<gini = 0.0<br/>samples = 2<br/>value = [0, 2, 0]>, fillcolor="#39e581"] ;
336 -> 337 ;
338 [label=<gini = 0.0<br/>samples = 1<br/>value = [1, 0, 0]>, fillcolor="#e58139"] ;
336 -> 338 ;
339 [label=<citric acid &le; 0.255<br/>gini = 0.215<br/>samples = 17<br/>value = [15, 1, 1]>, fillcolor="#e89152"] ;
335 -> 339 ;
340 [label=<gini = 0.0<br/>samples = 1<br/>value = [0, 1, 0]>, fillcolor="#39e581"] ;
339 -> 340 ;
341 [label=<volatile acidity &le; 0.245<br/>gini = 0.117<br/>samples = 16<br/>value = [15, 0, 1]>, fillcolor="#e78946"] ;
339 -> 341 ;
342 [label=<alcohol &le; 9.6<br/>gini = 0.5<br/>samples = 2<br/>value = [1, 0, 1]>, fillcolor="#ffffff"] ;
341 -> 342 ;
343 [label=<gini = 0.0<br/>samples = 1<br/>value = [1, 0, 0]>, fillcolor="#e58139"] ;
342 -> 343 ;
344 [label=<gini = 0.0<br/>samples = 1<br/>value = [0, 0, 1]>, fillcolor="#8139e5"] ;
342 -> 344 ;
345 [label=<gini = 0.0<br/>samples = 14<br/>value = [14, 0, 0]>, fillcolor="#e58139"] ;
341 -> 345 ;
346 [label=<density &le; 0.996<br/>gini = 0.5<br/>samples = 56<br/>value = [28, 28, 0]>, fillcolor="#ffffff"] ;
324 -> 346 ;
347 [label=<total sulfur dioxide &le; 220.5<br/>gini = 0.32<br/>samples = 20<br/>value = [4, 16, 0]>, fillcolor="#6aeca0"] ;
346 -> 347 ;
348 [label=<chlorides &le; 0.206<br/>gini = 0.198<br/>samples = 18<br/>value = [2, 16, 0]>, fillcolor="#52e891"] ;
347 -> 348 ;
349 [label=<sulphates &le; 0.695<br/>gini = 0.111<br/>samples = 17<br/>value = [1, 16, 0]>, fillcolor="#45e789"] ;
348 -> 349 ;
350 [label=<gini = 0.0<br/>samples = 16<br/>value = [0, 16, 0]>, fillcolor="#39e581"] ;
349 -> 350 ;
351 [label=<gini = 0.0<br/>samples = 1<br/>value = [1, 0, 0]>, fillcolor="#e58139"] ;
349 -> 351 ;
352 [label=<gini = 0.0<br/>samples = 1<br/>value = [1, 0, 0]>, fillcolor="#e58139"] ;
348 -> 352 ;
353 [label=<gini = 0.0<br/>samples = 2<br/>value = [2, 0, 0]>, fillcolor="#e58139"] ;
347 -> 353 ;
354 [label=<free sulfur dioxide &le; 53.5<br/>gini = 0.444<br/>samples = 36<br/>value = [24, 12, 0]>, fillcolor="#f2c09c"] ;
346 -> 354 ;
355 [label=<citric acid &le; 0.425<br/>gini = 0.463<br/>samples = 11<br/>value = [4, 7, 0]>, fillcolor="#aaf4c9"] ;
354 -> 355 ;
356 [label=<gini = 0.0<br/>samples = 6<br/>value = [0, 6, 0]>, fillcolor="#39e581"] ;
355 -> 356 ;
357 [label=<residual sugar &le; 12.025<br/>gini = 0.32<br/>samples = 5<br/>value = [4, 1, 0]>, fillcolor="#eca06a"] ;
355 -> 357 ;
358 [label=<gini = 0.0<br/>samples = 4<br/>value = [4, 0, 0]>, fillcolor="#e58139"] ;
357 -> 358 ;
359 [label=<gini = 0.0<br/>samples = 1<br/>value = [0, 1, 0]>, fillcolor="#39e581"] ;
357 -> 359 ;
360 [label=<total sulfur dioxide &le; 211.5<br/>gini = 0.32<br/>samples = 25<br/>value = [20, 5, 0]>, fillcolor="#eca06a"] ;
354 -> 360 ;
361 [label=<alcohol &le; 8.85<br/>gini = 0.188<br/>samples = 19<br/>value = [17, 2, 0]>, fillcolor="#e89050"] ;
360 -> 361 ;
362 [label=<gini = 0.0<br/>samples = 1<br/>value = [0, 1, 0]>, fillcolor="#39e581"] ;
361 -> 362 ;
363 [label=<residual sugar &le; 6.55<br/>gini = 0.105<br/>samples = 18<br/>value = [17, 1, 0]>, fillcolor="#e78845"] ;
361 -> 363 ;
364 [label=<gini = 0.0<br/>samples = 1<br/>value = [0, 1, 0]>, fillcolor="#39e581"] ;
363 -> 364 ;
365 [label=<gini = 0.0<br/>samples = 17<br/>value = [17, 0, 0]>, fillcolor="#e58139"] ;
363 -> 365 ;
366 [label=<sulphates &le; 0.51<br/>gini = 0.5<br/>samples = 6<br/>value = [3, 3, 0]>, fillcolor="#ffffff"] ;
360 -> 366 ;
367 [label=<gini = 0.0<br/>samples = 3<br/>value = [3, 0, 0]>, fillcolor="#e58139"] ;
366 -> 367 ;
368 [label=<gini = 0.0<br/>samples = 3<br/>value = [0, 3, 0]>, fillcolor="#39e581"] ;
366 -> 368 ;
369 [label=<gini = 0.0<br/>samples = 5<br/>value = [0, 0, 5]>, fillcolor="#8139e5"] ;
323 -> 369 ;
370 [label=<pH &le; 3.365<br/>gini = 0.095<br/>samples = 20<br/>value = [19, 1, 0]>, fillcolor="#e68843"] ;
322 -> 370 ;
371 [label=<gini = 0.0<br/>samples = 17<br/>value = [17, 0, 0]>, fillcolor="#e58139"] ;
370 -> 371 ;
372 [label=<sulphates &le; 0.455<br/>gini = 0.444<br/>samples = 3<br/>value = [2, 1, 0]>, fillcolor="#f2c09c"] ;
370 -> 372 ;
373 [label=<gini = 0.0<br/>samples = 2<br/>value = [2, 0, 0]>, fillcolor="#e58139"] ;
372 -> 373 ;
374 [label=<gini = 0.0<br/>samples = 1<br/>value = [0, 1, 0]>, fillcolor="#39e581"] ;
372 -> 374 ;
375 [label=<volatile acidity &le; 0.245<br/>gini = 0.18<br/>samples = 10<br/>value = [1, 9, 0]>, fillcolor="#4fe88f"] ;
303 -> 375 ;
376 [label=<gini = 0.0<br/>samples = 1<br/>value = [1, 0, 0]>, fillcolor="#e58139"] ;
375 -> 376 ;
377 [label=<gini = 0.0<br/>samples = 9<br/>value = [0, 9, 0]>, fillcolor="#39e581"] ;
375 -> 377 ;
378 [label=<residual sugar &le; 7.95<br/>gini = 0.491<br/>samples = 60<br/>value = [14, 40, 6]>, fillcolor="#8ff0b8"] ;
290 -> 378 ;
379 [label=<pH &le; 3.24<br/>gini = 0.593<br/>samples = 37<br/>value = [11, 20, 6]>, fillcolor="#baf6d3"] ;
378 -> 379 ;
380 [label=<citric acid &le; 0.485<br/>gini = 0.58<br/>samples = 21<br/>value = [10, 9, 2]>, fillcolor="#fdf4ee"] ;
379 -> 380 ;
381 [label=<total sulfur dioxide &le; 138.0<br/>gini = 0.554<br/>samples = 17<br/>value = [10, 5, 2]>, fillcolor="#f4caac"] ;
380 -> 381 ;
382 [label=<density &le; 0.995<br/>gini = 0.198<br/>samples = 9<br/>value = [8, 1, 0]>, fillcolor="#e89152"] ;
381 -> 382 ;
383 [label=<gini = 0.0<br/>samples = 7<br/>value = [7, 0, 0]>, fillcolor="#e58139"] ;
382 -> 383 ;
384 [label=<pH &le; 3.215<br/>gini = 0.5<br/>samples = 2<br/>value = [1, 1, 0]>, fillcolor="#ffffff"] ;
382 -> 384 ;
385 [label=<gini = 0.0<br/>samples = 1<br/>value = [0, 1, 0]>, fillcolor="#39e581"] ;
384 -> 385 ;
386 [label=<gini = 0.0<br/>samples = 1<br/>value = [1, 0, 0]>, fillcolor="#e58139"] ;
384 -> 386 ;
387 [label=<pH &le; 3.145<br/>gini = 0.625<br/>samples = 8<br/>value = [2, 4, 2]>, fillcolor="#bdf6d5"] ;
381 -> 387 ;
388 [label=<total sulfur dioxide &le; 187.5<br/>gini = 0.32<br/>samples = 5<br/>value = [1, 4, 0]>, fillcolor="#6aeca0"] ;
387 -> 388 ;
389 [label=<gini = 0.0<br/>samples = 4<br/>value = [0, 4, 0]>, fillcolor="#39e581"] ;
388 -> 389 ;
390 [label=<gini = 0.0<br/>samples = 1<br/>value = [1, 0, 0]>, fillcolor="#e58139"] ;
388 -> 390 ;
391 [label=<fixed acidity &le; 7.6<br/>gini = 0.444<br/>samples = 3<br/>value = [1, 0, 2]>, fillcolor="#c09cf2"] ;
387 -> 391 ;
392 [label=<gini = 0.0<br/>samples = 2<br/>value = [0, 0, 2]>, fillcolor="#8139e5"] ;
391 -> 392 ;
393 [label=<gini = 0.0<br/>samples = 1<br/>value = [1, 0, 0]>, fillcolor="#e58139"] ;
391 -> 393 ;
394 [label=<gini = 0.0<br/>samples = 4<br/>value = [0, 4, 0]>, fillcolor="#39e581"] ;
380 -> 394 ;
395 [label=<residual sugar &le; 4.65<br/>gini = 0.461<br/>samples = 16<br/>value = [1, 11, 4]>, fillcolor="#8cf0b6"] ;
379 -> 395 ;
396 [label=<total sulfur dioxide &le; 70.0<br/>gini = 0.391<br/>samples = 15<br/>value = [0, 11, 4]>, fillcolor="#81eeaf"] ;
395 -> 396 ;
397 [label=<density &le; 0.998<br/>gini = 0.444<br/>samples = 3<br/>value = [0, 1, 2]>, fillcolor="#c09cf2"] ;
396 -> 397 ;
398 [label=<gini = 0.0<br/>samples = 2<br/>value = [0, 0, 2]>, fillcolor="#8139e5"] ;
397 -> 398 ;
399 [label=<gini = 0.0<br/>samples = 1<br/>value = [0, 1, 0]>, fillcolor="#39e581"] ;
397 -> 399 ;
400 [label=<citric acid &le; 0.275<br/>gini = 0.278<br/>samples = 12<br/>value = [0, 10, 2]>, fillcolor="#61ea9a"] ;
396 -> 400 ;
401 [label=<gini = 0.0<br/>samples = 1<br/>value = [0, 0, 1]>, fillcolor="#8139e5"] ;
400 -> 401 ;
402 [label=<density &le; 0.993<br/>gini = 0.165<br/>samples = 11<br/>value = [0, 10, 1]>, fillcolor="#4de88e"] ;
400 -> 402 ;
403 [label=<fixed acidity &le; 5.8<br/>gini = 0.5<br/>samples = 2<br/>value = [0, 1, 1]>, fillcolor="#ffffff"] ;
402 -> 403 ;
404 [label=<gini = 0.0<br/>samples = 1<br/>value = [0, 1, 0]>, fillcolor="#39e581"] ;
403 -> 404 ;
405 [label=<gini = 0.0<br/>samples = 1<br/>value = [0, 0, 1]>, fillcolor="#8139e5"] ;
403 -> 405 ;
406 [label=<gini = 0.0<br/>samples = 9<br/>value = [0, 9, 0]>, fillcolor="#39e581"] ;
402 -> 406 ;
407 [label=<gini = 0.0<br/>samples = 1<br/>value = [1, 0, 0]>, fillcolor="#e58139"] ;
395 -> 407 ;
408 [label=<density &le; 0.998<br/>gini = 0.227<br/>samples = 23<br/>value = [3, 20, 0]>, fillcolor="#57e994"] ;
378 -> 408 ;
409 [label=<gini = 0.0<br/>samples = 18<br/>value = [0, 18, 0]>, fillcolor="#39e581"] ;
408 -> 409 ;
410 [label=<total sulfur dioxide &le; 182.0<br/>gini = 0.48<br/>samples = 5<br/>value = [3, 2, 0]>, fillcolor="#f6d5bd"] ;
408 -> 410 ;
411 [label=<gini = 0.0<br/>samples = 3<br/>value = [3, 0, 0]>, fillcolor="#e58139"] ;
410 -> 411 ;
412 [label=<gini = 0.0<br/>samples = 2<br/>value = [0, 2, 0]>, fillcolor="#39e581"] ;
410 -> 412 ;
413 [label=<sulphates &le; 0.575<br/>gini = 0.445<br/>samples = 1326<br/>value = [905, 396, 25]>, fillcolor="#f1ba93"] ;
1 -> 413 ;
414 [label=<volatile acidity &le; 0.447<br/>gini = 0.388<br/>samples = 849<br/>value = [629, 213, 7]>, fillcolor="#eead7d"] ;
413 -> 414 ;
415 [label=<alcohol &le; 9.75<br/>gini = 0.436<br/>samples = 550<br/>value = [378, 166, 6]>, fillcolor="#f1b992"] ;
414 -> 415 ;
416 [label=<volatile acidity &le; 0.303<br/>gini = 0.4<br/>samples = 432<br/>value = [315, 113, 4]>, fillcolor="#efaf82"] ;
415 -> 416 ;
417 [label=<free sulfur dioxide &le; 22.5<br/>gini = 0.488<br/>samples = 131<br/>value = [78, 52, 1]>, fillcolor="#f6d6be"] ;
416 -> 417 ;
418 [label=<chlorides &le; 0.061<br/>gini = 0.133<br/>samples = 14<br/>value = [13, 1, 0]>, fillcolor="#e78b48"] ;
417 -> 418 ;
419 [label=<gini = 0.0<br/>samples = 13<br/>value = [13, 0, 0]>, fillcolor="#e58139"] ;
418 -> 419 ;
420 [label=<gini = 0.0<br/>samples = 1<br/>value = [0, 1, 0]>, fillcolor="#39e581"] ;
418 -> 420 ;
421 [label=<density &le; 0.994<br/>gini = 0.501<br/>samples = 117<br/>value = [65, 51, 1]>, fillcolor="#f9e4d5"] ;
417 -> 421 ;
422 [label=<gini = 0.0<br/>samples = 6<br/>value = [0, 6, 0]>, fillcolor="#39e581"] ;
421 -> 422 ;
423 [label=<chlorides &le; 0.039<br/>gini = 0.493<br/>samples = 111<br/>value = [65, 45, 1]>, fillcolor="#f7d9c3"] ;
421 -> 423 ;
424 [label=<residual sugar &le; 10.85<br/>gini = 0.355<br/>samples = 13<br/>value = [3, 10, 0]>, fillcolor="#74eda7"] ;
423 -> 424 ;
425 [label=<gini = 0.0<br/>samples = 9<br/>value = [0, 9, 0]>, fillcolor="#39e581"] ;
424 -> 425 ;
426 [label=<sulphates &le; 0.49<br/>gini = 0.375<br/>samples = 4<br/>value = [3, 1, 0]>, fillcolor="#eeab7b"] ;
424 -> 426 ;
427 [label=<gini = 0.0<br/>samples = 3<br/>value = [3, 0, 0]>, fillcolor="#e58139"] ;
426 -> 427 ;
428 [label=<gini = 0.0<br/>samples = 1<br/>value = [0, 1, 0]>, fillcolor="#39e581"] ;
426 -> 428 ;
429 [label=<total sulfur dioxide &le; 114.5<br/>gini = 0.472<br/>samples = 98<br/>value = [62, 35, 1]>, fillcolor="#f4c9aa"] ;
423 -> 429 ;
430 [label=<gini = 0.0<br/>samples = 4<br/>value = [0, 4, 0]>, fillcolor="#39e581"] ;
429 -> 430 ;
431 [label=<sulphates &le; 0.505<br/>gini = 0.456<br/>samples = 94<br/>value = [62, 31, 1]>, fillcolor="#f2c19e"] ;
429 -> 431 ;
432 [label=<sulphates &le; 0.455<br/>gini = 0.391<br/>samples = 75<br/>value = [55, 20, 0]>, fillcolor="#eeaf81"] ;
431 -> 432 ;
433 [label=<alcohol &le; 8.95<br/>gini = 0.491<br/>samples = 37<br/>value = [21, 16, 0]>, fillcolor="#f9e1d0"] ;
432 -> 433 ;
434 [label=<gini = 0.0<br/>samples = 7<br/>value = [7, 0, 0]>, fillcolor="#e58139"] ;
433 -> 434 ;
435 [label=<total sulfur dioxide &le; 180.5<br/>gini = 0.498<br/>samples = 30<br/>value = [14, 16, 0]>, fillcolor="#e6fcef"] ;
433 -> 435 ;
436 [label=<alcohol &le; 9.35<br/>gini = 0.337<br/>samples = 14<br/>value = [3, 11, 0]>, fillcolor="#6feca3"] ;
435 -> 436 ;
437 [label=<total sulfur dioxide &le; 128.5<br/>gini = 0.165<br/>samples = 11<br/>value = [1, 10, 0]>, fillcolor="#4de88e"] ;
436 -> 437 ;
438 [label=<gini = 0.0<br/>samples = 1<br/>value = [1, 0, 0]>, fillcolor="#e58139"] ;
437 -> 438 ;
439 [label=<gini = 0.0<br/>samples = 10<br/>value = [0, 10, 0]>, fillcolor="#39e581"] ;
437 -> 439 ;
440 [label=<total sulfur dioxide &le; 170.5<br/>gini = 0.444<br/>samples = 3<br/>value = [2, 1, 0]>, fillcolor="#f2c09c"] ;
436 -> 440 ;
441 [label=<gini = 0.0<br/>samples = 2<br/>value = [2, 0, 0]>, fillcolor="#e58139"] ;
440 -> 441 ;
442 [label=<gini = 0.0<br/>samples = 1<br/>value = [0, 1, 0]>, fillcolor="#39e581"] ;
440 -> 442 ;
443 [label=<total sulfur dioxide &le; 203.0<br/>gini = 0.43<br/>samples = 16<br/>value = [11, 5, 0]>, fillcolor="#f1ba93"] ;
435 -> 443 ;
444 [label=<citric acid &le; 0.275<br/>gini = 0.26<br/>samples = 13<br/>value = [11, 2, 0]>, fillcolor="#ea985d"] ;
443 -> 444 ;
445 [label=<pH &le; 3.2<br/>gini = 0.48<br/>samples = 5<br/>value = [3, 2, 0]>, fillcolor="#f6d5bd"] ;
444 -> 445 ;
446 [label=<gini = 0.0<br/>samples = 2<br/>value = [0, 2, 0]>, fillcolor="#39e581"] ;
445 -> 446 ;
447 [label=<gini = 0.0<br/>samples = 3<br/>value = [3, 0, 0]>, fillcolor="#e58139"] ;
445 -> 447 ;
448 [label=<gini = 0.0<br/>samples = 8<br/>value = [8, 0, 0]>, fillcolor="#e58139"] ;
444 -> 448 ;
449 [label=<gini = 0.0<br/>samples = 3<br/>value = [0, 3, 0]>, fillcolor="#39e581"] ;
443 -> 449 ;
450 [label=<sulphates &le; 0.485<br/>gini = 0.188<br/>samples = 38<br/>value = [34, 4, 0]>, fillcolor="#e89050"] ;
432 -> 450 ;
451 [label=<gini = 0.0<br/>samples = 23<br/>value = [23, 0, 0]>, fillcolor="#e58139"] ;
450 -> 451 ;
452 [label=<total sulfur dioxide &le; 186.0<br/>gini = 0.391<br/>samples = 15<br/>value = [11, 4, 0]>, fillcolor="#eeaf81"] ;
450 -> 452 ;
453 [label=<volatile acidity &le; 0.295<br/>gini = 0.165<br/>samples = 11<br/>value = [10, 1, 0]>, fillcolor="#e88e4d"] ;
452 -> 453 ;
454 [label=<gini = 0.0<br/>samples = 10<br/>value = [10, 0, 0]>, fillcolor="#e58139"] ;
453 -> 454 ;
455 [label=<gini = 0.0<br/>samples = 1<br/>value = [0, 1, 0]>, fillcolor="#39e581"] ;
453 -> 455 ;
456 [label=<alcohol &le; 9.05<br/>gini = 0.375<br/>samples = 4<br/>value = [1, 3, 0]>, fillcolor="#7beeab"] ;
452 -> 456 ;
457 [label=<gini = 0.0<br/>samples = 1<br/>value = [1, 0, 0]>, fillcolor="#e58139"] ;
456 -> 457 ;
458 [label=<gini = 0.0<br/>samples = 3<br/>value = [0, 3, 0]>, fillcolor="#39e581"] ;
456 -> 458 ;
459 [label=<chlorides &le; 0.046<br/>gini = 0.526<br/>samples = 19<br/>value = [7, 11, 1]>, fillcolor="#bdf6d5"] ;
431 -> 459 ;
460 [label=<gini = 0.0<br/>samples = 8<br/>value = [0, 8, 0]>, fillcolor="#39e581"] ;
459 -> 460 ;
461 [label=<free sulfur dioxide &le; 42.5<br/>gini = 0.512<br/>samples = 11<br/>value = [7, 3, 1]>, fillcolor="#f2c09c"] ;
459 -> 461 ;
462 [label=<free sulfur dioxide &le; 37.5<br/>gini = 0.5<br/>samples = 2<br/>value = [0, 1, 1]>, fillcolor="#ffffff"] ;
461 -> 462 ;
463 [label=<gini = 0.0<br/>samples = 1<br/>value = [0, 1, 0]>, fillcolor="#39e581"] ;
462 -> 463 ;
464 [label=<gini = 0.0<br/>samples = 1<br/>value = [0, 0, 1]>, fillcolor="#8139e5"] ;
462 -> 464 ;
465 [label=<total sulfur dioxide &le; 168.0<br/>gini = 0.346<br/>samples = 9<br/>value = [7, 2, 0]>, fillcolor="#eca572"] ;
461 -> 465 ;
466 [label=<gini = 0.0<br/>samples = 1<br/>value = [0, 1, 0]>, fillcolor="#39e581"] ;
465 -> 466 ;
467 [label=<sulphates &le; 0.545<br/>gini = 0.219<br/>samples = 8<br/>value = [7, 1, 0]>, fillcolor="#e99355"] ;
465 -> 467 ;
468 [label=<gini = 0.0<br/>samples = 7<br/>value = [7, 0, 0]>, fillcolor="#e58139"] ;
467 -> 468 ;
469 [label=<gini = 0.0<br/>samples = 1<br/>value = [0, 1, 0]>, fillcolor="#39e581"] ;
467 -> 469 ;
470 [label=<pH &le; 3.085<br/>gini = 0.339<br/>samples = 301<br/>value = [237, 61, 3]>, fillcolor="#eca36e"] ;
416 -> 470 ;
471 [label=<sulphates &le; 0.415<br/>gini = 0.106<br/>samples = 71<br/>value = [67, 4, 0]>, fillcolor="#e78945"] ;
470 -> 471 ;
472 [label=<volatile acidity &le; 0.365<br/>gini = 0.278<br/>samples = 18<br/>value = [15, 3, 0]>, fillcolor="#ea9a61"] ;
471 -> 472 ;
473 [label=<gini = 0.0<br/>samples = 13<br/>value = [13, 0, 0]>, fillcolor="#e58139"] ;
472 -> 473 ;
474 [label=<free sulfur dioxide &le; 23.5<br/>gini = 0.48<br/>samples = 5<br/>value = [2, 3, 0]>, fillcolor="#bdf6d5"] ;
472 -> 474 ;
475 [label=<gini = 0.0<br/>samples = 3<br/>value = [0, 3, 0]>, fillcolor="#39e581"] ;
474 -> 475 ;
476 [label=<gini = 0.0<br/>samples = 2<br/>value = [2, 0, 0]>, fillcolor="#e58139"] ;
474 -> 476 ;
477 [label=<volatile acidity &le; 0.312<br/>gini = 0.037<br/>samples = 53<br/>value = [52, 1, 0]>, fillcolor="#e6833d"] ;
471 -> 477 ;
478 [label=<fixed acidity &le; 7.5<br/>gini = 0.245<br/>samples = 7<br/>value = [6, 1, 0]>, fillcolor="#e9965a"] ;
477 -> 478 ;
479 [label=<gini = 0.0<br/>samples = 6<br/>value = [6, 0, 0]>, fillcolor="#e58139"] ;
478 -> 479 ;
480 [label=<gini = 0.0<br/>samples = 1<br/>value = [0, 1, 0]>, fillcolor="#39e581"] ;
478 -> 480 ;
481 [label=<gini = 0.0<br/>samples = 46<br/>value = [46, 0, 0]>, fillcolor="#e58139"] ;
477 -> 481 ;
482 [label=<volatile acidity &le; 0.433<br/>gini = 0.392<br/>samples = 230<br/>value = [170, 57, 3]>, fillcolor="#eead7e"] ;
470 -> 482 ;
483 [label=<volatile acidity &le; 0.395<br/>gini = 0.37<br/>samples = 220<br/>value = [167, 51, 2]>, fillcolor="#eda977"] ;
482 -> 483 ;
484 [label=<chlorides &le; 0.041<br/>gini = 0.409<br/>samples = 182<br/>value = [131, 49, 2]>, fillcolor="#efb185"] ;
483 -> 484 ;
485 [label=<alcohol &le; 9.45<br/>gini = 0.49<br/>samples = 14<br/>value = [6, 8, 0]>, fillcolor="#cef8e0"] ;
484 -> 485 ;
486 [label=<citric acid &le; 0.21<br/>gini = 0.32<br/>samples = 10<br/>value = [2, 8, 0]>, fillcolor="#6aeca0"] ;
485 -> 486 ;
487 [label=<gini = 0.0<br/>samples = 2<br/>value = [2, 0, 0]>, fillcolor="#e58139"] ;
486 -> 487 ;
488 [label=<gini = 0.0<br/>samples = 8<br/>value = [0, 8, 0]>, fillcolor="#39e581"] ;
486 -> 488 ;
489 [label=<gini = 0.0<br/>samples = 4<br/>value = [4, 0, 0]>, fillcolor="#e58139"] ;
485 -> 489 ;
490 [label=<density &le; 1.006<br/>gini = 0.387<br/>samples = 168<br/>value = [125, 41, 2]>, fillcolor="#eeac7c"] ;
484 -> 490 ;
491 [label=<total sulfur dioxide &le; 241.5<br/>gini = 0.378<br/>samples = 166<br/>value = [125, 39, 2]>, fillcolor="#edaa79"] ;
490 -> 491 ;
492 [label=<chlorides &le; 0.142<br/>gini = 0.368<br/>samples = 164<br/>value = [125, 37, 2]>, fillcolor="#eda876"] ;
491 -> 492 ;
493 [label=<density &le; 0.996<br/>gini = 0.354<br/>samples = 160<br/>value = [124, 34, 2]>, fillcolor="#eca572"] ;
492 -> 493 ;
494 [label=<total sulfur dioxide &le; 205.0<br/>gini = 0.426<br/>samples = 79<br/>value = [56, 21, 2]>, fillcolor="#efb388"] ;
493 -> 494 ;
495 [label=<sulphates &le; 0.455<br/>gini = 0.4<br/>samples = 76<br/>value = [56, 18, 2]>, fillcolor="#eeac7d"] ;
494 -> 495 ;
496 [label=<citric acid &le; 0.48<br/>gini = 0.5<br/>samples = 33<br/>value = [20, 12, 1]>, fillcolor="#f5cfb4"] ;
495 -> 496 ;
497 [label=<density &le; 0.993<br/>gini = 0.536<br/>samples = 26<br/>value = [13, 12, 1]>, fillcolor="#fdf6f1"] ;
496 -> 497 ;
498 [label=<total sulfur dioxide &le; 142.0<br/>gini = 0.245<br/>samples = 7<br/>value = [1, 6, 0]>, fillcolor="#5ae996"] ;
497 -> 498 ;
499 [label=<gini = 0.0<br/>samples = 6<br/>value = [0, 6, 0]>, fillcolor="#39e581"] ;
498 -> 499 ;
500 [label=<gini = 0.0<br/>samples = 1<br/>value = [1, 0, 0]>, fillcolor="#e58139"] ;
498 -> 500 ;
501 [label=<density &le; 0.995<br/>gini = 0.499<br/>samples = 19<br/>value = [12, 6, 1]>, fillcolor="#f3c5a4"] ;
497 -> 501 ;
502 [label=<gini = 0.0<br/>samples = 9<br/>value = [9, 0, 0]>, fillcolor="#e58139"] ;
501 -> 502 ;
503 [label=<chlorides &le; 0.06<br/>gini = 0.54<br/>samples = 10<br/>value = [3, 6, 1]>, fillcolor="#aaf4c9"] ;
501 -> 503 ;
504 [label=<pH &le; 3.165<br/>gini = 0.611<br/>samples = 6<br/>value = [3, 2, 1]>, fillcolor="#f8e0ce"] ;
503 -> 504 ;
505 [label=<gini = 0.0<br/>samples = 3<br/>value = [3, 0, 0]>, fillcolor="#e58139"] ;
504 -> 505 ;
506 [label=<free sulfur dioxide &le; 40.0<br/>gini = 0.444<br/>samples = 3<br/>value = [0, 2, 1]>, fillcolor="#9cf2c0"] ;
504 -> 506 ;
507 [label=<gini = 0.0<br/>samples = 1<br/>value = [0, 0, 1]>, fillcolor="#8139e5"] ;
506 -> 507 ;
508 [label=<gini = 0.0<br/>samples = 2<br/>value = [0, 2, 0]>, fillcolor="#39e581"] ;
506 -> 508 ;
509 [label=<gini = 0.0<br/>samples = 4<br/>value = [0, 4, 0]>, fillcolor="#39e581"] ;
503 -> 509 ;
510 [label=<gini = 0.0<br/>samples = 7<br/>value = [7, 0, 0]>, fillcolor="#e58139"] ;
496 -> 510 ;
511 [label=<residual sugar &le; 5.5<br/>gini = 0.279<br/>samples = 43<br/>value = [36, 6, 1]>, fillcolor="#ea995e"] ;
495 -> 511 ;
512 [label=<residual sugar &le; 1.35<br/>gini = 0.135<br/>samples = 28<br/>value = [26, 1, 1]>, fillcolor="#e78a48"] ;
511 -> 512 ;
513 [label=<sulphates &le; 0.525<br/>gini = 0.406<br/>samples = 8<br/>value = [6, 1, 1]>, fillcolor="#eca572"] ;
512 -> 513 ;
514 [label=<total sulfur dioxide &le; 180.5<br/>gini = 0.625<br/>samples = 4<br/>value = [2, 1, 1]>, fillcolor="#f6d5bd"] ;
513 -> 514 ;
515 [label=<density &le; 0.994<br/>gini = 0.5<br/>samples = 2<br/>value = [0, 1, 1]>, fillcolor="#ffffff"] ;
514 -> 515 ;
516 [label=<gini = 0.0<br/>samples = 1<br/>value = [0, 0, 1]>, fillcolor="#8139e5"] ;
515 -> 516 ;
517 [label=<gini = 0.0<br/>samples = 1<br/>value = [0, 1, 0]>, fillcolor="#39e581"] ;
515 -> 517 ;
518 [label=<gini = 0.0<br/>samples = 2<br/>value = [2, 0, 0]>, fillcolor="#e58139"] ;
514 -> 518 ;
519 [label=<gini = 0.0<br/>samples = 4<br/>value = [4, 0, 0]>, fillcolor="#e58139"] ;
513 -> 519 ;
520 [label=<gini = 0.0<br/>samples = 20<br/>value = [20, 0, 0]>, fillcolor="#e58139"] ;
512 -> 520 ;
521 [label=<free sulfur dioxide &le; 32.5<br/>gini = 0.444<br/>samples = 15<br/>value = [10, 5, 0]>, fillcolor="#f2c09c"] ;
511 -> 521 ;
522 [label=<gini = 0.0<br/>samples = 2<br/>value = [0, 2, 0]>, fillcolor="#39e581"] ;
521 -> 522 ;
523 [label=<free sulfur dioxide &le; 62.5<br/>gini = 0.355<br/>samples = 13<br/>value = [10, 3, 0]>, fillcolor="#eda774"] ;
521 -> 523 ;
524 [label=<total sulfur dioxide &le; 201.5<br/>gini = 0.278<br/>samples = 12<br/>value = [10, 2, 0]>, fillcolor="#ea9a61"] ;
523 -> 524 ;
525 [label=<chlorides &le; 0.067<br/>gini = 0.165<br/>samples = 11<br/>value = [10, 1, 0]>, fillcolor="#e88e4d"] ;
524 -> 525 ;
526 [label=<gini = 0.0<br/>samples = 10<br/>value = [10, 0, 0]>, fillcolor="#e58139"] ;
525 -> 526 ;
527 [label=<gini = 0.0<br/>samples = 1<br/>value = [0, 1, 0]>, fillcolor="#39e581"] ;
525 -> 527 ;
528 [label=<gini = 0.0<br/>samples = 1<br/>value = [0, 1, 0]>, fillcolor="#39e581"] ;
524 -> 528 ;
529 [label=<gini = 0.0<br/>samples = 1<br/>value = [0, 1, 0]>, fillcolor="#39e581"] ;
523 -> 529 ;
530 [label=<gini = 0.0<br/>samples = 3<br/>value = [0, 3, 0]>, fillcolor="#39e581"] ;
494 -> 530 ;
531 [label=<pH &le; 3.245<br/>gini = 0.269<br/>samples = 81<br/>value = [68, 13, 0]>, fillcolor="#ea995f"] ;
493 -> 531 ;
532 [label=<fixed acidity &le; 6.35<br/>gini = 0.183<br/>samples = 59<br/>value = [53, 6, 0]>, fillcolor="#e88f4f"] ;
531 -> 532 ;
533 [label=<alcohol &le; 8.85<br/>gini = 0.494<br/>samples = 9<br/>value = [5, 4, 0]>, fillcolor="#fae6d7"] ;
532 -> 533 ;
534 [label=<free sulfur dioxide &le; 34.5<br/>gini = 0.444<br/>samples = 6<br/>value = [2, 4, 0]>, fillcolor="#9cf2c0"] ;
533 -> 534 ;
535 [label=<gini = 0.0<br/>samples = 3<br/>value = [0, 3, 0]>, fillcolor="#39e581"] ;
534 -> 535 ;
536 [label=<volatile acidity &le; 0.325<br/>gini = 0.444<br/>samples = 3<br/>value = [2, 1, 0]>, fillcolor="#f2c09c"] ;
534 -> 536 ;
537 [label=<gini = 0.0<br/>samples = 1<br/>value = [0, 1, 0]>, fillcolor="#39e581"] ;
536 -> 537 ;
538 [label=<gini = 0.0<br/>samples = 2<br/>value = [2, 0, 0]>, fillcolor="#e58139"] ;
536 -> 538 ;
539 [label=<gini = 0.0<br/>samples = 3<br/>value = [3, 0, 0]>, fillcolor="#e58139"] ;
533 -> 539 ;
540 [label=<pH &le; 3.095<br/>gini = 0.077<br/>samples = 50<br/>value = [48, 2, 0]>, fillcolor="#e68641"] ;
532 -> 540 ;
541 [label=<alcohol &le; 8.85<br/>gini = 0.444<br/>samples = 3<br/>value = [2, 1, 0]>, fillcolor="#f2c09c"] ;
540 -> 541 ;
542 [label=<gini = 0.0<br/>samples = 1<br/>value = [0, 1, 0]>, fillcolor="#39e581"] ;
541 -> 542 ;
543 [label=<gini = 0.0<br/>samples = 2<br/>value = [2, 0, 0]>, fillcolor="#e58139"] ;
541 -> 543 ;
544 [label=<sulphates &le; 0.525<br/>gini = 0.042<br/>samples = 47<br/>value = [46, 1, 0]>, fillcolor="#e6843d"] ;
540 -> 544 ;
545 [label=<gini = 0.0<br/>samples = 40<br/>value = [40, 0, 0]>, fillcolor="#e58139"] ;
544 -> 545 ;
546 [label=<density &le; 0.997<br/>gini = 0.245<br/>samples = 7<br/>value = [6, 1, 0]>, fillcolor="#e9965a"] ;
544 -> 546 ;
547 [label=<gini = 0.0<br/>samples = 1<br/>value = [0, 1, 0]>, fillcolor="#39e581"] ;
546 -> 547 ;
548 [label=<gini = 0.0<br/>samples = 6<br/>value = [6, 0, 0]>, fillcolor="#e58139"] ;
546 -> 548 ;
549 [label=<residual sugar &le; 2.2<br/>gini = 0.434<br/>samples = 22<br/>value = [15, 7, 0]>, fillcolor="#f1bc95"] ;
531 -> 549 ;
550 [label=<gini = 0.0<br/>samples = 7<br/>value = [7, 0, 0]>, fillcolor="#e58139"] ;
549 -> 550 ;
551 [label=<total sulfur dioxide &le; 202.0<br/>gini = 0.498<br/>samples = 15<br/>value = [8, 7, 0]>, fillcolor="#fcefe6"] ;
549 -> 551 ;
552 [label=<density &le; 0.998<br/>gini = 0.444<br/>samples = 9<br/>value = [3, 6, 0]>, fillcolor="#9cf2c0"] ;
551 -> 552 ;
553 [label=<gini = 0.0<br/>samples = 4<br/>value = [0, 4, 0]>, fillcolor="#39e581"] ;
552 -> 553 ;
554 [label=<alcohol &le; 9.45<br/>gini = 0.48<br/>samples = 5<br/>value = [3, 2, 0]>, fillcolor="#f6d5bd"] ;
552 -> 554 ;
555 [label=<gini = 0.0<br/>samples = 3<br/>value = [3, 0, 0]>, fillcolor="#e58139"] ;
554 -> 555 ;
556 [label=<gini = 0.0<br/>samples = 2<br/>value = [0, 2, 0]>, fillcolor="#39e581"] ;
554 -> 556 ;
557 [label=<sulphates &le; 0.565<br/>gini = 0.278<br/>samples = 6<br/>value = [5, 1, 0]>, fillcolor="#ea9a61"] ;
551 -> 557 ;
558 [label=<gini = 0.0<br/>samples = 5<br/>value = [5, 0, 0]>, fillcolor="#e58139"] ;
557 -> 558 ;
559 [label=<gini = 0.0<br/>samples = 1<br/>value = [0, 1, 0]>, fillcolor="#39e581"] ;
557 -> 559 ;
560 [label=<free sulfur dioxide &le; 33.0<br/>gini = 0.375<br/>samples = 4<br/>value = [1, 3, 0]>, fillcolor="#7beeab"] ;
492 -> 560 ;
561 [label=<gini = 0.0<br/>samples = 1<br/>value = [1, 0, 0]>, fillcolor="#e58139"] ;
560 -> 561 ;
562 [label=<gini = 0.0<br/>samples = 3<br/>value = [0, 3, 0]>, fillcolor="#39e581"] ;
560 -> 562 ;
563 [label=<gini = 0.0<br/>samples = 2<br/>value = [0, 2, 0]>, fillcolor="#39e581"] ;
491 -> 563 ;
564 [label=<gini = 0.0<br/>samples = 2<br/>value = [0, 2, 0]>, fillcolor="#39e581"] ;
490 -> 564 ;
565 [label=<fixed acidity &le; 5.9<br/>gini = 0.1<br/>samples = 38<br/>value = [36, 2, 0]>, fillcolor="#e68844"] ;
483 -> 565 ;
566 [label=<gini = 0.0<br/>samples = 1<br/>value = [0, 1, 0]>, fillcolor="#39e581"] ;
565 -> 566 ;
567 [label=<pH &le; 3.455<br/>gini = 0.053<br/>samples = 37<br/>value = [36, 1, 0]>, fillcolor="#e6843e"] ;
565 -> 567 ;
568 [label=<gini = 0.0<br/>samples = 36<br/>value = [36, 0, 0]>, fillcolor="#e58139"] ;
567 -> 568 ;
569 [label=<gini = 0.0<br/>samples = 1<br/>value = [0, 1, 0]>, fillcolor="#39e581"] ;
567 -> 569 ;
570 [label=<citric acid &le; 0.29<br/>gini = 0.54<br/>samples = 10<br/>value = [3, 6, 1]>, fillcolor="#aaf4c9"] ;
482 -> 570 ;
571 [label=<gini = 0.0<br/>samples = 3<br/>value = [3, 0, 0]>, fillcolor="#e58139"] ;
570 -> 571 ;
572 [label=<residual sugar &le; 13.1<br/>gini = 0.245<br/>samples = 7<br/>value = [0, 6, 1]>, fillcolor="#5ae996"] ;
570 -> 572 ;
573 [label=<gini = 0.0<br/>samples = 6<br/>value = [0, 6, 0]>, fillcolor="#39e581"] ;
572 -> 573 ;
574 [label=<gini = 0.0<br/>samples = 1<br/>value = [0, 0, 1]>, fillcolor="#8139e5"] ;
572 -> 574 ;
575 [label=<density &le; 0.995<br/>gini = 0.513<br/>samples = 118<br/>value = [63, 53, 2]>, fillcolor="#fbece1"] ;
415 -> 575 ;
576 [label=<chlorides &le; 0.03<br/>gini = 0.433<br/>samples = 56<br/>value = [39, 16, 1]>, fillcolor="#f0b78d"] ;
575 -> 576 ;
577 [label=<gini = 0.0<br/>samples = 3<br/>value = [0, 3, 0]>, fillcolor="#39e581"] ;
576 -> 577 ;
578 [label=<free sulfur dioxide &le; 24.5<br/>gini = 0.398<br/>samples = 53<br/>value = [39, 13, 1]>, fillcolor="#eead7e"] ;
576 -> 578 ;
579 [label=<citric acid &le; 0.37<br/>gini = 0.091<br/>samples = 21<br/>value = [20, 1, 0]>, fillcolor="#e68743"] ;
578 -> 579 ;
580 [label=<gini = 0.0<br/>samples = 19<br/>value = [19, 0, 0]>, fillcolor="#e58139"] ;
579 -> 580 ;
581 [label=<citric acid &le; 0.56<br/>gini = 0.5<br/>samples = 2<br/>value = [1, 1, 0]>, fillcolor="#ffffff"] ;
579 -> 581 ;
582 [label=<gini = 0.0<br/>samples = 1<br/>value = [0, 1, 0]>, fillcolor="#39e581"] ;
581 -> 582 ;
583 [label=<gini = 0.0<br/>samples = 1<br/>value = [1, 0, 0]>, fillcolor="#e58139"] ;
581 -> 583 ;
584 [label=<pH &le; 3.135<br/>gini = 0.506<br/>samples = 32<br/>value = [19, 12, 1]>, fillcolor="#f6d3ba"] ;
578 -> 584 ;
585 [label=<citric acid &le; 0.195<br/>gini = 0.346<br/>samples = 9<br/>value = [2, 7, 0]>, fillcolor="#72eca5"] ;
584 -> 585 ;
586 [label=<alcohol &le; 10.15<br/>gini = 0.444<br/>samples = 3<br/>value = [2, 1, 0]>, fillcolor="#f2c09c"] ;
585 -> 586 ;
587 [label=<gini = 0.0<br/>samples = 2<br/>value = [2, 0, 0]>, fillcolor="#e58139"] ;
586 -> 587 ;
588 [label=<gini = 0.0<br/>samples = 1<br/>value = [0, 1, 0]>, fillcolor="#39e581"] ;
586 -> 588 ;
589 [label=<gini = 0.0<br/>samples = 6<br/>value = [0, 6, 0]>, fillcolor="#39e581"] ;
585 -> 589 ;
590 [label=<total sulfur dioxide &le; 127.5<br/>gini = 0.405<br/>samples = 23<br/>value = [17, 5, 1]>, fillcolor="#eeab7b"] ;
584 -> 590 ;
591 [label=<residual sugar &le; 1.7<br/>gini = 0.444<br/>samples = 3<br/>value = [0, 2, 1]>, fillcolor="#9cf2c0"] ;
590 -> 591 ;
592 [label=<gini = 0.0<br/>samples = 2<br/>value = [0, 2, 0]>, fillcolor="#39e581"] ;
591 -> 592 ;
593 [label=<gini = 0.0<br/>samples = 1<br/>value = [0, 0, 1]>, fillcolor="#8139e5"] ;
591 -> 593 ;
594 [label=<total sulfur dioxide &le; 179.0<br/>gini = 0.255<br/>samples = 20<br/>value = [17, 3, 0]>, fillcolor="#ea975c"] ;
590 -> 594 ;
595 [label=<gini = 0.0<br/>samples = 16<br/>value = [16, 0, 0]>, fillcolor="#e58139"] ;
594 -> 595 ;
596 [label=<chlorides &le; 0.041<br/>gini = 0.375<br/>samples = 4<br/>value = [1, 3, 0]>, fillcolor="#7beeab"] ;
594 -> 596 ;
597 [label=<gini = 0.0<br/>samples = 1<br/>value = [1, 0, 0]>, fillcolor="#e58139"] ;
596 -> 597 ;
598 [label=<gini = 0.0<br/>samples = 3<br/>value = [0, 3, 0]>, fillcolor="#39e581"] ;
596 -> 598 ;
599 [label=<fixed acidity &le; 8.65<br/>gini = 0.494<br/>samples = 62<br/>value = [24, 37, 1]>, fillcolor="#bbf6d4"] ;
575 -> 599 ;
600 [label=<volatile acidity &le; 0.305<br/>gini = 0.437<br/>samples = 52<br/>value = [15, 36, 1]>, fillcolor="#8ff0b7"] ;
599 -> 600 ;
601 [label=<total sulfur dioxide &le; 161.5<br/>gini = 0.542<br/>samples = 12<br/>value = [7, 4, 1]>, fillcolor="#f5d0b5"] ;
600 -> 601 ;
602 [label=<pH &le; 3.12<br/>gini = 0.5<br/>samples = 6<br/>value = [1, 4, 1]>, fillcolor="#88efb3"] ;
601 -> 602 ;
603 [label=<free sulfur dioxide &le; 40.0<br/>gini = 0.5<br/>samples = 2<br/>value = [1, 0, 1]>, fillcolor="#ffffff"] ;
602 -> 603 ;
604 [label=<gini = 0.0<br/>samples = 1<br/>value = [1, 0, 0]>, fillcolor="#e58139"] ;
603 -> 604 ;
605 [label=<gini = 0.0<br/>samples = 1<br/>value = [0, 0, 1]>, fillcolor="#8139e5"] ;
603 -> 605 ;
606 [label=<gini = 0.0<br/>samples = 4<br/>value = [0, 4, 0]>, fillcolor="#39e581"] ;
602 -> 606 ;
607 [label=<gini = 0.0<br/>samples = 6<br/>value = [6, 0, 0]>, fillcolor="#e58139"] ;
601 -> 607 ;
608 [label=<chlorides &le; 0.054<br/>gini = 0.32<br/>samples = 40<br/>value = [8, 32, 0]>, fillcolor="#6aeca0"] ;
600 -> 608 ;
609 [label=<volatile acidity &le; 0.315<br/>gini = 0.165<br/>samples = 22<br/>value = [2, 20, 0]>, fillcolor="#4de88e"] ;
608 -> 609 ;
610 [label=<gini = 0.0<br/>samples = 1<br/>value = [1, 0, 0]>, fillcolor="#e58139"] ;
609 -> 610 ;
611 [label=<free sulfur dioxide &le; 19.0<br/>gini = 0.091<br/>samples = 21<br/>value = [1, 20, 0]>, fillcolor="#43e687"] ;
609 -> 611 ;
612 [label=<gini = 0.0<br/>samples = 1<br/>value = [1, 0, 0]>, fillcolor="#e58139"] ;
611 -> 612 ;
613 [label=<gini = 0.0<br/>samples = 20<br/>value = [0, 20, 0]>, fillcolor="#39e581"] ;
611 -> 613 ;
614 [label=<free sulfur dioxide &le; 43.5<br/>gini = 0.444<br/>samples = 18<br/>value = [6, 12, 0]>, fillcolor="#9cf2c0"] ;
608 -> 614 ;
615 [label=<pH &le; 3.4<br/>gini = 0.32<br/>samples = 15<br/>value = [3, 12, 0]>, fillcolor="#6aeca0"] ;
614 -> 615 ;
616 [label=<sulphates &le; 0.395<br/>gini = 0.245<br/>samples = 14<br/>value = [2, 12, 0]>, fillcolor="#5ae996"] ;
615 -> 616 ;
617 [label=<gini = 0.0<br/>samples = 1<br/>value = [1, 0, 0]>, fillcolor="#e58139"] ;
616 -> 617 ;
618 [label=<volatile acidity &le; 0.42<br/>gini = 0.142<br/>samples = 13<br/>value = [1, 12, 0]>, fillcolor="#49e78c"] ;
616 -> 618 ;
619 [label=<gini = 0.0<br/>samples = 11<br/>value = [0, 11, 0]>, fillcolor="#39e581"] ;
618 -> 619 ;
620 [label=<sulphates &le; 0.47<br/>gini = 0.5<br/>samples = 2<br/>value = [1, 1, 0]>, fillcolor="#ffffff"] ;
618 -> 620 ;
621 [label=<gini = 0.0<br/>samples = 1<br/>value = [1, 0, 0]>, fillcolor="#e58139"] ;
620 -> 621 ;
622 [label=<gini = 0.0<br/>samples = 1<br/>value = [0, 1, 0]>, fillcolor="#39e581"] ;
620 -> 622 ;
623 [label=<gini = 0.0<br/>samples = 1<br/>value = [1, 0, 0]>, fillcolor="#e58139"] ;
615 -> 623 ;
624 [label=<gini = 0.0<br/>samples = 3<br/>value = [3, 0, 0]>, fillcolor="#e58139"] ;
614 -> 624 ;
625 [label=<total sulfur dioxide &le; 61.5<br/>gini = 0.18<br/>samples = 10<br/>value = [9, 1, 0]>, fillcolor="#e88f4f"] ;
599 -> 625 ;
626 [label=<gini = 0.0<br/>samples = 1<br/>value = [0, 1, 0]>, fillcolor="#39e581"] ;
625 -> 626 ;
627 [label=<gini = 0.0<br/>samples = 9<br/>value = [9, 0, 0]>, fillcolor="#e58139"] ;
625 -> 627 ;
628 [label=<pH &le; 3.545<br/>gini = 0.271<br/>samples = 299<br/>value = [251, 47, 1]>, fillcolor="#ea995f"] ;
414 -> 628 ;
629 [label=<alcohol &le; 9.95<br/>gini = 0.26<br/>samples = 295<br/>value = [250, 44, 1]>, fillcolor="#ea985c"] ;
628 -> 629 ;
630 [label=<residual sugar &le; 10.55<br/>gini = 0.216<br/>samples = 244<br/>value = [214, 30, 0]>, fillcolor="#e99355"] ;
629 -> 630 ;
631 [label=<pH &le; 2.815<br/>gini = 0.184<br/>samples = 225<br/>value = [202, 23, 0]>, fillcolor="#e88f50"] ;
630 -> 631 ;
632 [label=<gini = 0.0<br/>samples = 1<br/>value = [0, 1, 0]>, fillcolor="#39e581"] ;
631 -> 632 ;
633 [label=<fixed acidity &le; 12.75<br/>gini = 0.177<br/>samples = 224<br/>value = [202, 22, 0]>, fillcolor="#e88f4f"] ;
631 -> 633 ;
634 [label=<fixed acidity &le; 5.55<br/>gini = 0.171<br/>samples = 223<br/>value = [202, 21, 0]>, fillcolor="#e88e4e"] ;
633 -> 634 ;
635 [label=<alcohol &le; 9.5<br/>gini = 0.48<br/>samples = 5<br/>value = [3, 2, 0]>, fillcolor="#f6d5bd"] ;
634 -> 635 ;
636 [label=<gini = 0.0<br/>samples = 3<br/>value = [3, 0, 0]>, fillcolor="#e58139"] ;
635 -> 636 ;
637 [label=<gini = 0.0<br/>samples = 2<br/>value = [0, 2, 0]>, fillcolor="#39e581"] ;
635 -> 637 ;
638 [label=<total sulfur dioxide &le; 10.5<br/>gini = 0.159<br/>samples = 218<br/>value = [199, 19, 0]>, fillcolor="#e78d4c"] ;
634 -> 638 ;
639 [label=<citric acid &le; 0.135<br/>gini = 0.48<br/>samples = 5<br/>value = [3, 2, 0]>, fillcolor="#f6d5bd"] ;
638 -> 639 ;
640 [label=<gini = 0.0<br/>samples = 3<br/>value = [3, 0, 0]>, fillcolor="#e58139"] ;
639 -> 640 ;
641 [label=<gini = 0.0<br/>samples = 2<br/>value = [0, 2, 0]>, fillcolor="#39e581"] ;
639 -> 641 ;
642 [label=<citric acid &le; 0.245<br/>gini = 0.147<br/>samples = 213<br/>value = [196, 17, 0]>, fillcolor="#e78c4a"] ;
638 -> 642 ;
643 [label=<citric acid &le; 0.045<br/>gini = 0.19<br/>samples = 141<br/>value = [126, 15, 0]>, fillcolor="#e89051"] ;
642 -> 643 ;
644 [label=<residual sugar &le; 4.9<br/>gini = 0.042<br/>samples = 47<br/>value = [46, 1, 0]>, fillcolor="#e6843d"] ;
643 -> 644 ;
645 [label=<gini = 0.0<br/>samples = 44<br/>value = [44, 0, 0]>, fillcolor="#e58139"] ;
644 -> 645 ;
646 [label=<fixed acidity &le; 7.2<br/>gini = 0.444<br/>samples = 3<br/>value = [2, 1, 0]>, fillcolor="#f2c09c"] ;
644 -> 646 ;
647 [label=<gini = 0.0<br/>samples = 2<br/>value = [2, 0, 0]>, fillcolor="#e58139"] ;
646 -> 647 ;
648 [label=<gini = 0.0<br/>samples = 1<br/>value = [0, 1, 0]>, fillcolor="#39e581"] ;
646 -> 648 ;
649 [label=<pH &le; 3.115<br/>gini = 0.254<br/>samples = 94<br/>value = [80, 14, 0]>, fillcolor="#ea975c"] ;
643 -> 649 ;
650 [label=<gini = 0.0<br/>samples = 16<br/>value = [16, 0, 0]>, fillcolor="#e58139"] ;
649 -> 650 ;
651 [label=<sulphates &le; 0.475<br/>gini = 0.295<br/>samples = 78<br/>value = [64, 14, 0]>, fillcolor="#eb9d64"] ;
649 -> 651 ;
652 [label=<chlorides &le; 0.082<br/>gini = 0.494<br/>samples = 9<br/>value = [5, 4, 0]>, fillcolor="#fae6d7"] ;
651 -> 652 ;
653 [label=<total sulfur dioxide &le; 87.5<br/>gini = 0.444<br/>samples = 6<br/>value = [2, 4, 0]>, fillcolor="#9cf2c0"] ;
652 -> 653 ;
654 [label=<density &le; 0.997<br/>gini = 0.444<br/>samples = 3<br/>value = [2, 1, 0]>, fillcolor="#f2c09c"] ;
653 -> 654 ;
655 [label=<gini = 0.0<br/>samples = 2<br/>value = [2, 0, 0]>, fillcolor="#e58139"] ;
654 -> 655 ;
656 [label=<gini = 0.0<br/>samples = 1<br/>value = [0, 1, 0]>, fillcolor="#39e581"] ;
654 -> 656 ;
657 [label=<gini = 0.0<br/>samples = 3<br/>value = [0, 3, 0]>, fillcolor="#39e581"] ;
653 -> 657 ;
658 [label=<gini = 0.0<br/>samples = 3<br/>value = [3, 0, 0]>, fillcolor="#e58139"] ;
652 -> 658 ;
659 [label=<density &le; 0.999<br/>gini = 0.248<br/>samples = 69<br/>value = [59, 10, 0]>, fillcolor="#e9965b"] ;
651 -> 659 ;
660 [label=<volatile acidity &le; 0.545<br/>gini = 0.219<br/>samples = 64<br/>value = [56, 8, 0]>, fillcolor="#e99355"] ;
659 -> 660 ;
661 [label=<citric acid &le; 0.07<br/>gini = 0.426<br/>samples = 13<br/>value = [9, 4, 0]>, fillcolor="#f1b991"] ;
660 -> 661 ;
662 [label=<gini = 0.0<br/>samples = 2<br/>value = [0, 2, 0]>, fillcolor="#39e581"] ;
661 -> 662 ;
663 [label=<pH &le; 3.31<br/>gini = 0.298<br/>samples = 11<br/>value = [9, 2, 0]>, fillcolor="#eb9d65"] ;
661 -> 663 ;
664 [label=<pH &le; 3.24<br/>gini = 0.48<br/>samples = 5<br/>value = [3, 2, 0]>, fillcolor="#f6d5bd"] ;
663 -> 664 ;
665 [label=<gini = 0.0<br/>samples = 3<br/>value = [3, 0, 0]>, fillcolor="#e58139"] ;
664 -> 665 ;
666 [label=<gini = 0.0<br/>samples = 2<br/>value = [0, 2, 0]>, fillcolor="#39e581"] ;
664 -> 666 ;
667 [label=<gini = 0.0<br/>samples = 6<br/>value = [6, 0, 0]>, fillcolor="#e58139"] ;
663 -> 667 ;
668 [label=<volatile acidity &le; 0.685<br/>gini = 0.145<br/>samples = 51<br/>value = [47, 4, 0]>, fillcolor="#e78c4a"] ;
660 -> 668 ;
669 [label=<gini = 0.0<br/>samples = 28<br/>value = [28, 0, 0]>, fillcolor="#e58139"] ;
668 -> 669 ;
670 [label=<total sulfur dioxide &le; 80.0<br/>gini = 0.287<br/>samples = 23<br/>value = [19, 4, 0]>, fillcolor="#ea9c63"] ;
668 -> 670 ;
671 [label=<gini = 0.0<br/>samples = 14<br/>value = [14, 0, 0]>, fillcolor="#e58139"] ;
670 -> 671 ;
672 [label=<sulphates &le; 0.515<br/>gini = 0.494<br/>samples = 9<br/>value = [5, 4, 0]>, fillcolor="#fae6d7"] ;
670 -> 672 ;
673 [label=<gini = 0.0<br/>samples = 4<br/>value = [4, 0, 0]>, fillcolor="#e58139"] ;
672 -> 673 ;
674 [label=<alcohol &le; 9.1<br/>gini = 0.32<br/>samples = 5<br/>value = [1, 4, 0]>, fillcolor="#6aeca0"] ;
672 -> 674 ;
675 [label=<gini = 0.0<br/>samples = 1<br/>value = [1, 0, 0]>, fillcolor="#e58139"] ;
674 -> 675 ;
676 [label=<gini = 0.0<br/>samples = 4<br/>value = [0, 4, 0]>, fillcolor="#39e581"] ;
674 -> 676 ;
677 [label=<citric acid &le; 0.13<br/>gini = 0.48<br/>samples = 5<br/>value = [3, 2, 0]>, fillcolor="#f6d5bd"] ;
659 -> 677 ;
678 [label=<gini = 0.0<br/>samples = 2<br/>value = [0, 2, 0]>, fillcolor="#39e581"] ;
677 -> 678 ;
679 [label=<gini = 0.0<br/>samples = 3<br/>value = [3, 0, 0]>, fillcolor="#e58139"] ;
677 -> 679 ;
680 [label=<volatile acidity &le; 0.76<br/>gini = 0.054<br/>samples = 72<br/>value = [70, 2, 0]>, fillcolor="#e6853f"] ;
642 -> 680 ;
681 [label=<sulphates &le; 0.535<br/>gini = 0.031<br/>samples = 63<br/>value = [62, 1, 0]>, fillcolor="#e5833c"] ;
680 -> 681 ;
682 [label=<gini = 0.0<br/>samples = 46<br/>value = [46, 0, 0]>, fillcolor="#e58139"] ;
681 -> 682 ;
683 [label=<chlorides &le; 0.068<br/>gini = 0.111<br/>samples = 17<br/>value = [16, 1, 0]>, fillcolor="#e78945"] ;
681 -> 683 ;
684 [label=<citric acid &le; 0.33<br/>gini = 0.5<br/>samples = 2<br/>value = [1, 1, 0]>, fillcolor="#ffffff"] ;
683 -> 684 ;
685 [label=<gini = 0.0<br/>samples = 1<br/>value = [0, 1, 0]>, fillcolor="#39e581"] ;
684 -> 685 ;
686 [label=<gini = 0.0<br/>samples = 1<br/>value = [1, 0, 0]>, fillcolor="#e58139"] ;
684 -> 686 ;
687 [label=<gini = 0.0<br/>samples = 15<br/>value = [15, 0, 0]>, fillcolor="#e58139"] ;
683 -> 687 ;
688 [label=<volatile acidity &le; 0.79<br/>gini = 0.198<br/>samples = 9<br/>value = [8, 1, 0]>, fillcolor="#e89152"] ;
680 -> 688 ;
689 [label=<gini = 0.0<br/>samples = 1<br/>value = [0, 1, 0]>, fillcolor="#39e581"] ;
688 -> 689 ;
690 [label=<gini = 0.0<br/>samples = 8<br/>value = [8, 0, 0]>, fillcolor="#e58139"] ;
688 -> 690 ;
691 [label=<gini = 0.0<br/>samples = 1<br/>value = [0, 1, 0]>, fillcolor="#39e581"] ;
633 -> 691 ;
692 [label=<sulphates &le; 0.515<br/>gini = 0.465<br/>samples = 19<br/>value = [12, 7, 0]>, fillcolor="#f4caac"] ;
630 -> 692 ;
693 [label=<fixed acidity &le; 6.35<br/>gini = 0.278<br/>samples = 12<br/>value = [10, 2, 0]>, fillcolor="#ea9a61"] ;
692 -> 693 ;
694 [label=<chlorides &le; 0.053<br/>gini = 0.444<br/>samples = 3<br/>value = [1, 2, 0]>, fillcolor="#9cf2c0"] ;
693 -> 694 ;
695 [label=<gini = 0.0<br/>samples = 2<br/>value = [0, 2, 0]>, fillcolor="#39e581"] ;
694 -> 695 ;
696 [label=<gini = 0.0<br/>samples = 1<br/>value = [1, 0, 0]>, fillcolor="#e58139"] ;
694 -> 696 ;
697 [label=<gini = 0.0<br/>samples = 9<br/>value = [9, 0, 0]>, fillcolor="#e58139"] ;
693 -> 697 ;
698 [label=<free sulfur dioxide &le; 52.0<br/>gini = 0.408<br/>samples = 7<br/>value = [2, 5, 0]>, fillcolor="#88efb3"] ;
692 -> 698 ;
699 [label=<fixed acidity &le; 6.95<br/>gini = 0.444<br/>samples = 3<br/>value = [2, 1, 0]>, fillcolor="#f2c09c"] ;
698 -> 699 ;
700 [label=<gini = 0.0<br/>samples = 1<br/>value = [0, 1, 0]>, fillcolor="#39e581"] ;
699 -> 700 ;
701 [label=<gini = 0.0<br/>samples = 2<br/>value = [2, 0, 0]>, fillcolor="#e58139"] ;
699 -> 701 ;
702 [label=<gini = 0.0<br/>samples = 4<br/>value = [0, 4, 0]>, fillcolor="#39e581"] ;
698 -> 702 ;
703 [label=<fixed acidity &le; 8.45<br/>gini = 0.426<br/>samples = 51<br/>value = [36, 14, 1]>, fillcolor="#f0b489"] ;
629 -> 703 ;
704 [label=<residual sugar &le; 7.3<br/>gini = 0.329<br/>samples = 40<br/>value = [32, 7, 1]>, fillcolor="#eba069"] ;
703 -> 704 ;
705 [label=<sulphates &le; 0.55<br/>gini = 0.24<br/>samples = 37<br/>value = [32, 4, 1]>, fillcolor="#e99457"] ;
704 -> 705 ;
706 [label=<residual sugar &le; 1.25<br/>gini = 0.123<br/>samples = 31<br/>value = [29, 1, 1]>, fillcolor="#e78946"] ;
705 -> 706 ;
707 [label=<gini = 0.0<br/>samples = 1<br/>value = [0, 0, 1]>, fillcolor="#8139e5"] ;
706 -> 707 ;
708 [label=<volatile acidity &le; 0.455<br/>gini = 0.064<br/>samples = 30<br/>value = [29, 1, 0]>, fillcolor="#e68540"] ;
706 -> 708 ;
709 [label=<gini = 0.0<br/>samples = 1<br/>value = [0, 1, 0]>, fillcolor="#39e581"] ;
708 -> 709 ;
710 [label=<gini = 0.0<br/>samples = 29<br/>value = [29, 0, 0]>, fillcolor="#e58139"] ;
708 -> 710 ;
711 [label=<volatile acidity &le; 0.525<br/>gini = 0.5<br/>samples = 6<br/>value = [3, 3, 0]>, fillcolor="#ffffff"] ;
705 -> 711 ;
712 [label=<gini = 0.0<br/>samples = 3<br/>value = [3, 0, 0]>, fillcolor="#e58139"] ;
711 -> 712 ;
713 [label=<gini = 0.0<br/>samples = 3<br/>value = [0, 3, 0]>, fillcolor="#39e581"] ;
711 -> 713 ;
714 [label=<gini = 0.0<br/>samples = 3<br/>value = [0, 3, 0]>, fillcolor="#39e581"] ;
704 -> 714 ;
715 [label=<fixed acidity &le; 9.55<br/>gini = 0.463<br/>samples = 11<br/>value = [4, 7, 0]>, fillcolor="#aaf4c9"] ;
703 -> 715 ;
716 [label=<gini = 0.0<br/>samples = 6<br/>value = [0, 6, 0]>, fillcolor="#39e581"] ;
715 -> 716 ;
717 [label=<pH &le; 3.225<br/>gini = 0.32<br/>samples = 5<br/>value = [4, 1, 0]>, fillcolor="#eca06a"] ;
715 -> 717 ;
718 [label=<gini = 0.0<br/>samples = 4<br/>value = [4, 0, 0]>, fillcolor="#e58139"] ;
717 -> 718 ;
719 [label=<gini = 0.0<br/>samples = 1<br/>value = [0, 1, 0]>, fillcolor="#39e581"] ;
717 -> 719 ;
720 [label=<sulphates &le; 0.465<br/>gini = 0.375<br/>samples = 4<br/>value = [1, 3, 0]>, fillcolor="#7beeab"] ;
628 -> 720 ;
721 [label=<gini = 0.0<br/>samples = 1<br/>value = [1, 0, 0]>, fillcolor="#e58139"] ;
720 -> 721 ;
722 [label=<gini = 0.0<br/>samples = 3<br/>value = [0, 3, 0]>, fillcolor="#39e581"] ;
720 -> 722 ;
723 [label=<total sulfur dioxide &le; 50.5<br/>gini = 0.517<br/>samples = 477<br/>value = [276, 183, 18]>, fillcolor="#f7d7c0"] ;
413 -> 723 ;
724 [label=<volatile acidity &le; 0.605<br/>gini = 0.553<br/>samples = 187<br/>value = [84, 92, 11]>, fillcolor="#f0fdf5"] ;
723 -> 724 ;
725 [label=<alcohol &le; 9.75<br/>gini = 0.543<br/>samples = 123<br/>value = [44, 70, 9]>, fillcolor="#bef6d6"] ;
724 -> 725 ;
726 [label=<citric acid &le; 0.55<br/>gini = 0.535<br/>samples = 81<br/>value = [38, 40, 3]>, fillcolor="#f6fef9"] ;
725 -> 726 ;
727 [label=<density &le; 0.997<br/>gini = 0.528<br/>samples = 70<br/>value = [28, 39, 3]>, fillcolor="#cbf8de"] ;
726 -> 727 ;
728 [label=<residual sugar &le; 2.15<br/>gini = 0.375<br/>samples = 16<br/>value = [12, 4, 0]>, fillcolor="#eeab7b"] ;
727 -> 728 ;
729 [label=<citric acid &le; 0.01<br/>gini = 0.245<br/>samples = 14<br/>value = [12, 2, 0]>, fillcolor="#e9965a"] ;
728 -> 729 ;
730 [label=<gini = 0.0<br/>samples = 1<br/>value = [0, 1, 0]>, fillcolor="#39e581"] ;
729 -> 730 ;
731 [label=<total sulfur dioxide &le; 15.0<br/>gini = 0.142<br/>samples = 13<br/>value = [12, 1, 0]>, fillcolor="#e78c49"] ;
729 -> 731 ;
732 [label=<fixed acidity &le; 7.1<br/>gini = 0.5<br/>samples = 2<br/>value = [1, 1, 0]>, fillcolor="#ffffff"] ;
731 -> 732 ;
733 [label=<gini = 0.0<br/>samples = 1<br/>value = [0, 1, 0]>, fillcolor="#39e581"] ;
732 -> 733 ;
734 [label=<gini = 0.0<br/>samples = 1<br/>value = [1, 0, 0]>, fillcolor="#e58139"] ;
732 -> 734 ;
735 [label=<gini = 0.0<br/>samples = 11<br/>value = [11, 0, 0]>, fillcolor="#e58139"] ;
731 -> 735 ;
736 [label=<gini = 0.0<br/>samples = 2<br/>value = [0, 2, 0]>, fillcolor="#39e581"] ;
728 -> 736 ;
737 [label=<citric acid &le; 0.305<br/>gini = 0.489<br/>samples = 54<br/>value = [16, 35, 3]>, fillcolor="#9cf2c0"] ;
727 -> 737 ;
738 [label=<density &le; 0.997<br/>gini = 0.347<br/>samples = 29<br/>value = [4, 23, 2]>, fillcolor="#69eb9f"] ;
737 -> 738 ;
739 [label=<total sulfur dioxide &le; 43.5<br/>gini = 0.653<br/>samples = 7<br/>value = [2, 3, 2]>, fillcolor="#d7fae6"] ;
738 -> 739 ;
740 [label=<citric acid &le; 0.14<br/>gini = 0.5<br/>samples = 4<br/>value = [2, 0, 2]>, fillcolor="#ffffff"] ;
739 -> 740 ;
741 [label=<gini = 0.0<br/>samples = 2<br/>value = [2, 0, 0]>, fillcolor="#e58139"] ;
740 -> 741 ;
742 [label=<gini = 0.0<br/>samples = 2<br/>value = [0, 0, 2]>, fillcolor="#8139e5"] ;
740 -> 742 ;
743 [label=<gini = 0.0<br/>samples = 3<br/>value = [0, 3, 0]>, fillcolor="#39e581"] ;
739 -> 743 ;
744 [label=<volatile acidity &le; 0.555<br/>gini = 0.165<br/>samples = 22<br/>value = [2, 20, 0]>, fillcolor="#4de88e"] ;
738 -> 744 ;
745 [label=<gini = 0.0<br/>samples = 19<br/>value = [0, 19, 0]>, fillcolor="#39e581"] ;
744 -> 745 ;
746 [label=<density &le; 0.998<br/>gini = 0.444<br/>samples = 3<br/>value = [2, 1, 0]>, fillcolor="#f2c09c"] ;
744 -> 746 ;
747 [label=<gini = 0.0<br/>samples = 1<br/>value = [0, 1, 0]>, fillcolor="#39e581"] ;
746 -> 747 ;
748 [label=<gini = 0.0<br/>samples = 2<br/>value = [2, 0, 0]>, fillcolor="#e58139"] ;
746 -> 748 ;
749 [label=<total sulfur dioxide &le; 26.5<br/>gini = 0.538<br/>samples = 25<br/>value = [12, 12, 1]>, fillcolor="#ffffff"] ;
737 -> 749 ;
750 [label=<volatile acidity &le; 0.39<br/>gini = 0.415<br/>samples = 17<br/>value = [5, 12, 0]>, fillcolor="#8bf0b5"] ;
749 -> 750 ;
751 [label=<citric acid &le; 0.43<br/>gini = 0.494<br/>samples = 9<br/>value = [5, 4, 0]>, fillcolor="#fae6d7"] ;
750 -> 751 ;
752 [label=<gini = 0.0<br/>samples = 4<br/>value = [4, 0, 0]>, fillcolor="#e58139"] ;
751 -> 752 ;
753 [label=<density &le; 0.998<br/>gini = 0.32<br/>samples = 5<br/>value = [1, 4, 0]>, fillcolor="#6aeca0"] ;
751 -> 753 ;
754 [label=<gini = 0.0<br/>samples = 1<br/>value = [1, 0, 0]>, fillcolor="#e58139"] ;
753 -> 754 ;
755 [label=<gini = 0.0<br/>samples = 4<br/>value = [0, 4, 0]>, fillcolor="#39e581"] ;
753 -> 755 ;
756 [label=<gini = 0.0<br/>samples = 8<br/>value = [0, 8, 0]>, fillcolor="#39e581"] ;
750 -> 756 ;
757 [label=<chlorides &le; 0.091<br/>gini = 0.219<br/>samples = 8<br/>value = [7, 0, 1]>, fillcolor="#e99355"] ;
749 -> 757 ;
758 [label=<gini = 0.0<br/>samples = 7<br/>value = [7, 0, 0]>, fillcolor="#e58139"] ;
757 -> 758 ;
759 [label=<gini = 0.0<br/>samples = 1<br/>value = [0, 0, 1]>, fillcolor="#8139e5"] ;
757 -> 759 ;
760 [label=<volatile acidity &le; 0.315<br/>gini = 0.165<br/>samples = 11<br/>value = [10, 1, 0]>, fillcolor="#e88e4d"] ;
726 -> 760 ;
761 [label=<gini = 0.0<br/>samples = 1<br/>value = [0, 1, 0]>, fillcolor="#39e581"] ;
760 -> 761 ;
762 [label=<gini = 0.0<br/>samples = 10<br/>value = [10, 0, 0]>, fillcolor="#e58139"] ;
760 -> 762 ;
763 [label=<sulphates &le; 1.035<br/>gini = 0.449<br/>samples = 42<br/>value = [6, 30, 6]>, fillcolor="#7beeab"] ;
725 -> 763 ;
764 [label=<sulphates &le; 0.615<br/>gini = 0.405<br/>samples = 40<br/>value = [6, 30, 4]>, fillcolor="#73eda6"] ;
763 -> 764 ;
765 [label=<volatile acidity &le; 0.525<br/>gini = 0.48<br/>samples = 5<br/>value = [3, 2, 0]>, fillcolor="#f6d5bd"] ;
764 -> 765 ;
766 [label=<gini = 0.0<br/>samples = 2<br/>value = [0, 2, 0]>, fillcolor="#39e581"] ;
765 -> 766 ;
767 [label=<gini = 0.0<br/>samples = 3<br/>value = [3, 0, 0]>, fillcolor="#e58139"] ;
765 -> 767 ;
768 [label=<free sulfur dioxide &le; 30.0<br/>gini = 0.34<br/>samples = 35<br/>value = [3, 28, 4]>, fillcolor="#66eb9d"] ;
764 -> 768 ;
769 [label=<volatile acidity &le; 0.412<br/>gini = 0.304<br/>samples = 34<br/>value = [2, 28, 4]>, fillcolor="#61ea9a"] ;
768 -> 769 ;
770 [label=<density &le; 0.996<br/>gini = 0.531<br/>samples = 16<br/>value = [2, 10, 4]>, fillcolor="#9cf2c0"] ;
769 -> 770 ;
771 [label=<fixed acidity &le; 7.3<br/>gini = 0.444<br/>samples = 3<br/>value = [1, 0, 2]>, fillcolor="#c09cf2"] ;
770 -> 771 ;
772 [label=<gini = 0.0<br/>samples = 2<br/>value = [0, 0, 2]>, fillcolor="#8139e5"] ;
771 -> 772 ;
773 [label=<gini = 0.0<br/>samples = 1<br/>value = [1, 0, 0]>, fillcolor="#e58139"] ;
771 -> 773 ;
774 [label=<fixed acidity &le; 11.75<br/>gini = 0.379<br/>samples = 13<br/>value = [1, 10, 2]>, fillcolor="#6feca3"] ;
770 -> 774 ;
775 [label=<citric acid &le; 0.395<br/>gini = 0.292<br/>samples = 12<br/>value = [1, 10, 1]>, fillcolor="#5dea98"] ;
774 -> 775 ;
776 [label=<pH &le; 3.32<br/>gini = 0.56<br/>samples = 5<br/>value = [1, 3, 1]>, fillcolor="#9cf2c0"] ;
775 -> 776 ;
777 [label=<chlorides &le; 0.08<br/>gini = 0.5<br/>samples = 2<br/>value = [1, 0, 1]>, fillcolor="#ffffff"] ;
776 -> 777 ;
778 [label=<gini = 0.0<br/>samples = 1<br/>value = [1, 0, 0]>, fillcolor="#e58139"] ;
777 -> 778 ;
779 [label=<gini = 0.0<br/>samples = 1<br/>value = [0, 0, 1]>, fillcolor="#8139e5"] ;
777 -> 779 ;
780 [label=<gini = 0.0<br/>samples = 3<br/>value = [0, 3, 0]>, fillcolor="#39e581"] ;
776 -> 780 ;
781 [label=<gini = 0.0<br/>samples = 7<br/>value = [0, 7, 0]>, fillcolor="#39e581"] ;
775 -> 781 ;
782 [label=<gini = 0.0<br/>samples = 1<br/>value = [0, 0, 1]>, fillcolor="#8139e5"] ;
774 -> 782 ;
783 [label=<gini = 0.0<br/>samples = 18<br/>value = [0, 18, 0]>, fillcolor="#39e581"] ;
769 -> 783 ;
784 [label=<gini = 0.0<br/>samples = 1<br/>value = [1, 0, 0]>, fillcolor="#e58139"] ;
768 -> 784 ;
785 [label=<gini = 0.0<br/>samples = 2<br/>value = [0, 0, 2]>, fillcolor="#8139e5"] ;
763 -> 785 ;
786 [label=<fixed acidity &le; 6.95<br/>gini = 0.49<br/>samples = 64<br/>value = [40, 22, 2]>, fillcolor="#f4c9aa"] ;
724 -> 786 ;
787 [label=<pH &le; 3.38<br/>gini = 0.133<br/>samples = 14<br/>value = [13, 1, 0]>, fillcolor="#e78b48"] ;
786 -> 787 ;
788 [label=<gini = 0.0<br/>samples = 1<br/>value = [0, 1, 0]>, fillcolor="#39e581"] ;
787 -> 788 ;
789 [label=<gini = 0.0<br/>samples = 13<br/>value = [13, 0, 0]>, fillcolor="#e58139"] ;
787 -> 789 ;
790 [label=<residual sugar &le; 4.7<br/>gini = 0.53<br/>samples = 50<br/>value = [27, 21, 2]>, fillcolor="#fae5d6"] ;
786 -> 790 ;
791 [label=<pH &le; 3.275<br/>gini = 0.492<br/>samples = 48<br/>value = [27, 21, 0]>, fillcolor="#f9e3d3"] ;
790 -> 791 ;
792 [label=<fixed acidity &le; 10.8<br/>gini = 0.26<br/>samples = 13<br/>value = [11, 2, 0]>, fillcolor="#ea985d"] ;
791 -> 792 ;
793 [label=<residual sugar &le; 2.65<br/>gini = 0.153<br/>samples = 12<br/>value = [11, 1, 0]>, fillcolor="#e78c4b"] ;
792 -> 793 ;
794 [label=<gini = 0.0<br/>samples = 10<br/>value = [10, 0, 0]>, fillcolor="#e58139"] ;
793 -> 794 ;
795 [label=<pH &le; 3.225<br/>gini = 0.5<br/>samples = 2<br/>value = [1, 1, 0]>, fillcolor="#ffffff"] ;
793 -> 795 ;
796 [label=<gini = 0.0<br/>samples = 1<br/>value = [0, 1, 0]>, fillcolor="#39e581"] ;
795 -> 796 ;
797 [label=<gini = 0.0<br/>samples = 1<br/>value = [1, 0, 0]>, fillcolor="#e58139"] ;
795 -> 797 ;
798 [label=<gini = 0.0<br/>samples = 1<br/>value = [0, 1, 0]>, fillcolor="#39e581"] ;
792 -> 798 ;
799 [label=<volatile acidity &le; 0.715<br/>gini = 0.496<br/>samples = 35<br/>value = [16, 19, 0]>, fillcolor="#e0fbeb"] ;
791 -> 799 ;
800 [label=<density &le; 0.996<br/>gini = 0.459<br/>samples = 28<br/>value = [10, 18, 0]>, fillcolor="#a7f3c7"] ;
799 -> 800 ;
801 [label=<gini = 0.0<br/>samples = 3<br/>value = [3, 0, 0]>, fillcolor="#e58139"] ;
800 -> 801 ;
802 [label=<citric acid &le; 0.005<br/>gini = 0.403<br/>samples = 25<br/>value = [7, 18, 0]>, fillcolor="#86efb2"] ;
800 -> 802 ;
803 [label=<gini = 0.0<br/>samples = 8<br/>value = [0, 8, 0]>, fillcolor="#39e581"] ;
802 -> 803 ;
804 [label=<citric acid &le; 0.2<br/>gini = 0.484<br/>samples = 17<br/>value = [7, 10, 0]>, fillcolor="#c4f7d9"] ;
802 -> 804 ;
805 [label=<fixed acidity &le; 7.05<br/>gini = 0.497<br/>samples = 13<br/>value = [7, 6, 0]>, fillcolor="#fbede3"] ;
804 -> 805 ;
806 [label=<gini = 0.0<br/>samples = 3<br/>value = [0, 3, 0]>, fillcolor="#39e581"] ;
805 -> 806 ;
807 [label=<citric acid &le; 0.075<br/>gini = 0.42<br/>samples = 10<br/>value = [7, 3, 0]>, fillcolor="#f0b78e"] ;
805 -> 807 ;
808 [label=<gini = 0.0<br/>samples = 4<br/>value = [4, 0, 0]>, fillcolor="#e58139"] ;
807 -> 808 ;
809 [label=<density &le; 0.997<br/>gini = 0.5<br/>samples = 6<br/>value = [3, 3, 0]>, fillcolor="#ffffff"] ;
807 -> 809 ;
810 [label=<gini = 0.0<br/>samples = 1<br/>value = [0, 1, 0]>, fillcolor="#39e581"] ;
809 -> 810 ;
811 [label=<volatile acidity &le; 0.678<br/>gini = 0.48<br/>samples = 5<br/>value = [3, 2, 0]>, fillcolor="#f6d5bd"] ;
809 -> 811 ;
812 [label=<gini = 0.0<br/>samples = 2<br/>value = [2, 0, 0]>, fillcolor="#e58139"] ;
811 -> 812 ;
813 [label=<volatile acidity &le; 0.695<br/>gini = 0.444<br/>samples = 3<br/>value = [1, 2, 0]>, fillcolor="#9cf2c0"] ;
811 -> 813 ;
814 [label=<gini = 0.0<br/>samples = 2<br/>value = [0, 2, 0]>, fillcolor="#39e581"] ;
813 -> 814 ;
815 [label=<gini = 0.0<br/>samples = 1<br/>value = [1, 0, 0]>, fillcolor="#e58139"] ;
813 -> 815 ;
816 [label=<gini = 0.0<br/>samples = 4<br/>value = [0, 4, 0]>, fillcolor="#39e581"] ;
804 -> 816 ;
817 [label=<sulphates &le; 0.75<br/>gini = 0.245<br/>samples = 7<br/>value = [6, 1, 0]>, fillcolor="#e9965a"] ;
799 -> 817 ;
818 [label=<gini = 0.0<br/>samples = 6<br/>value = [6, 0, 0]>, fillcolor="#e58139"] ;
817 -> 818 ;
819 [label=<gini = 0.0<br/>samples = 1<br/>value = [0, 1, 0]>, fillcolor="#39e581"] ;
817 -> 819 ;
820 [label=<gini = 0.0<br/>samples = 2<br/>value = [0, 0, 2]>, fillcolor="#8139e5"] ;
790 -> 820 ;
821 [label=<volatile acidity &le; 0.425<br/>gini = 0.463<br/>samples = 290<br/>value = [192, 91, 7]>, fillcolor="#f2bf9b"] ;
723 -> 821 ;
822 [label=<total sulfur dioxide &le; 83.0<br/>gini = 0.515<br/>samples = 158<br/>value = [88, 66, 4]>, fillcolor="#f9e1d0"] ;
821 -> 822 ;
823 [label=<free sulfur dioxide &le; 16.0<br/>gini = 0.444<br/>samples = 24<br/>value = [8, 16, 0]>, fillcolor="#9cf2c0"] ;
822 -> 823 ;
824 [label=<gini = 0.0<br/>samples = 2<br/>value = [2, 0, 0]>, fillcolor="#e58139"] ;
823 -> 824 ;
825 [label=<citric acid &le; 0.57<br/>gini = 0.397<br/>samples = 22<br/>value = [6, 16, 0]>, fillcolor="#83efb0"] ;
823 -> 825 ;
826 [label=<pH &le; 3.425<br/>gini = 0.32<br/>samples = 20<br/>value = [4, 16, 0]>, fillcolor="#6aeca0"] ;
825 -> 826 ;
827 [label=<pH &le; 3.175<br/>gini = 0.117<br/>samples = 16<br/>value = [1, 15, 0]>, fillcolor="#46e789"] ;
826 -> 827 ;
828 [label=<free sulfur dioxide &le; 25.0<br/>gini = 0.32<br/>samples = 5<br/>value = [1, 4, 0]>, fillcolor="#6aeca0"] ;
827 -> 828 ;
829 [label=<gini = 0.0<br/>samples = 4<br/>value = [0, 4, 0]>, fillcolor="#39e581"] ;
828 -> 829 ;
830 [label=<gini = 0.0<br/>samples = 1<br/>value = [1, 0, 0]>, fillcolor="#e58139"] ;
828 -> 830 ;
831 [label=<gini = 0.0<br/>samples = 11<br/>value = [0, 11, 0]>, fillcolor="#39e581"] ;
827 -> 831 ;
832 [label=<residual sugar &le; 1.95<br/>gini = 0.375<br/>samples = 4<br/>value = [3, 1, 0]>, fillcolor="#eeab7b"] ;
826 -> 832 ;
833 [label=<gini = 0.0<br/>samples = 1<br/>value = [0, 1, 0]>, fillcolor="#39e581"] ;
832 -> 833 ;
834 [label=<gini = 0.0<br/>samples = 3<br/>value = [3, 0, 0]>, fillcolor="#e58139"] ;
832 -> 834 ;
835 [label=<gini = 0.0<br/>samples = 2<br/>value = [2, 0, 0]>, fillcolor="#e58139"] ;
825 -> 835 ;
836 [label=<total sulfur dioxide &le; 153.0<br/>gini = 0.503<br/>samples = 134<br/>value = [80, 50, 4]>, fillcolor="#f6d2b8"] ;
822 -> 836 ;
837 [label=<citric acid &le; 0.135<br/>gini = 0.291<br/>samples = 34<br/>value = [28, 6, 0]>, fillcolor="#eb9c63"] ;
836 -> 837 ;
838 [label=<gini = 0.0<br/>samples = 3<br/>value = [0, 3, 0]>, fillcolor="#39e581"] ;
837 -> 838 ;
839 [label=<chlorides &le; 0.038<br/>gini = 0.175<br/>samples = 31<br/>value = [28, 3, 0]>, fillcolor="#e88e4e"] ;
837 -> 839 ;
840 [label=<gini = 0.0<br/>samples = 1<br/>value = [0, 1, 0]>, fillcolor="#39e581"] ;
839 -> 840 ;
841 [label=<alcohol &le; 9.95<br/>gini = 0.124<br/>samples = 30<br/>value = [28, 2, 0]>, fillcolor="#e78a47"] ;
839 -> 841 ;
842 [label=<gini = 0.0<br/>samples = 23<br/>value = [23, 0, 0]>, fillcolor="#e58139"] ;
841 -> 842 ;
843 [label=<free sulfur dioxide &le; 34.0<br/>gini = 0.408<br/>samples = 7<br/>value = [5, 2, 0]>, fillcolor="#efb388"] ;
841 -> 843 ;
844 [label=<gini = 0.0<br/>samples = 4<br/>value = [4, 0, 0]>, fillcolor="#e58139"] ;
843 -> 844 ;
845 [label=<sulphates &le; 0.755<br/>gini = 0.444<br/>samples = 3<br/>value = [1, 2, 0]>, fillcolor="#9cf2c0"] ;
843 -> 845 ;
846 [label=<gini = 0.0<br/>samples = 2<br/>value = [0, 2, 0]>, fillcolor="#39e581"] ;
845 -> 846 ;
847 [label=<gini = 0.0<br/>samples = 1<br/>value = [1, 0, 0]>, fillcolor="#e58139"] ;
845 -> 847 ;
848 [label=<free sulfur dioxide &le; 59.5<br/>gini = 0.534<br/>samples = 100<br/>value = [52, 44, 4]>, fillcolor="#fbede3"] ;
836 -> 848 ;
849 [label=<fixed acidity &le; 7.65<br/>gini = 0.523<br/>samples = 85<br/>value = [41, 42, 2]>, fillcolor="#fbfefc"] ;
848 -> 849 ;
850 [label=<total sulfur dioxide &le; 221.75<br/>gini = 0.518<br/>samples = 64<br/>value = [26, 36, 2]>, fillcolor="#cbf8de"] ;
849 -> 850 ;
851 [label=<volatile acidity &le; 0.39<br/>gini = 0.533<br/>samples = 56<br/>value = [26, 28, 2]>, fillcolor="#f2fdf7"] ;
850 -> 851 ;
852 [label=<total sulfur dioxide &le; 189.5<br/>gini = 0.536<br/>samples = 52<br/>value = [26, 24, 2]>, fillcolor="#fdf6f1"] ;
851 -> 852 ;
853 [label=<chlorides &le; 0.05<br/>gini = 0.532<br/>samples = 35<br/>value = [13, 20, 2]>, fillcolor="#c0f7d7"] ;
852 -> 853 ;
854 [label=<alcohol &le; 9.65<br/>gini = 0.448<br/>samples = 24<br/>value = [5, 17, 2]>, fillcolor="#82efaf"] ;
853 -> 854 ;
855 [label=<fixed acidity &le; 7.15<br/>gini = 0.26<br/>samples = 13<br/>value = [0, 11, 2]>, fillcolor="#5dea98"] ;
854 -> 855 ;
856 [label=<citric acid &le; 0.285<br/>gini = 0.153<br/>samples = 12<br/>value = [0, 11, 1]>, fillcolor="#4be78c"] ;
855 -> 856 ;
857 [label=<total sulfur dioxide &le; 187.0<br/>gini = 0.375<br/>samples = 4<br/>value = [0, 3, 1]>, fillcolor="#7beeab"] ;
856 -> 857 ;
858 [label=<gini = 0.0<br/>samples = 3<br/>value = [0, 3, 0]>, fillcolor="#39e581"] ;
857 -> 858 ;
859 [label=<gini = 0.0<br/>samples = 1<br/>value = [0, 0, 1]>, fillcolor="#8139e5"] ;
857 -> 859 ;
860 [label=<gini = 0.0<br/>samples = 8<br/>value = [0, 8, 0]>, fillcolor="#39e581"] ;
856 -> 860 ;
861 [label=<gini = 0.0<br/>samples = 1<br/>value = [0, 0, 1]>, fillcolor="#8139e5"] ;
855 -> 861 ;
862 [label=<chlorides &le; 0.046<br/>gini = 0.496<br/>samples = 11<br/>value = [5, 6, 0]>, fillcolor="#defbea"] ;
854 -> 862 ;
863 [label=<chlorides &le; 0.039<br/>gini = 0.469<br/>samples = 8<br/>value = [5, 3, 0]>, fillcolor="#f5cdb0"] ;
862 -> 863 ;
864 [label=<alcohol &le; 9.95<br/>gini = 0.48<br/>samples = 5<br/>value = [2, 3, 0]>, fillcolor="#bdf6d5"] ;
863 -> 864 ;
865 [label=<free sulfur dioxide &le; 33.5<br/>gini = 0.444<br/>samples = 3<br/>value = [2, 1, 0]>, fillcolor="#f2c09c"] ;
864 -> 865 ;
866 [label=<gini = 0.0<br/>samples = 1<br/>value = [0, 1, 0]>, fillcolor="#39e581"] ;
865 -> 866 ;
867 [label=<gini = 0.0<br/>samples = 2<br/>value = [2, 0, 0]>, fillcolor="#e58139"] ;
865 -> 867 ;
868 [label=<gini = 0.0<br/>samples = 2<br/>value = [0, 2, 0]>, fillcolor="#39e581"] ;
864 -> 868 ;
869 [label=<gini = 0.0<br/>samples = 3<br/>value = [3, 0, 0]>, fillcolor="#e58139"] ;
863 -> 869 ;
870 [label=<gini = 0.0<br/>samples = 3<br/>value = [0, 3, 0]>, fillcolor="#39e581"] ;
862 -> 870 ;
871 [label=<citric acid &le; 0.435<br/>gini = 0.397<br/>samples = 11<br/>value = [8, 3, 0]>, fillcolor="#efb083"] ;
853 -> 871 ;
872 [label=<residual sugar &le; 18.175<br/>gini = 0.198<br/>samples = 9<br/>value = [8, 1, 0]>, fillcolor="#e89152"] ;
871 -> 872 ;
873 [label=<gini = 0.0<br/>samples = 8<br/>value = [8, 0, 0]>, fillcolor="#e58139"] ;
872 -> 873 ;
